{"learner":{"attributes":{"scikit_learn":"{\"_estimator_type\": \"classifier\"}"},"feature_names":[],"feature_types":[],"gradient_booster":{"model":{"gbtree_model_param":{"num_parallel_tree":"1","num_trees":"100"},"iteration_indptr":[0,1,2,3,4,5,6,7,8,9,10,11,12,13,14,15,16,17,18,19,20,21,22,23,24,25,26,27,28,29,30,31,32,33,34,35,36,37,38,39,40,41,42,43,44,45,46,47,48,49,50,51,52,53,54,55,56,57,58,59,60,61,62,63,64,65,66,67,68,69,70,71,72,73,74,75,76,77,78,79,80,81,82,83,84,85,86,87,88,89,90,91,92,93,94,95,96,97,98,99,100],"tree_info":[0,0,0,0,0,0,0,0,0,0,0,0,0,0,0,0,0,0,0,0,0,0,0,0,0,0,0,0,0,0,0,0,0,0,0,0,0,0,0,0,0,0,0,0,0,0,0,0,0,0,0,0,0,0,0,0,0,0,0,0,0,0,0,0,0,0,0,0,0,0,0,0,0,0,0,0,0,0,0,0,0,0,0,0,0,0,0,0,0,0,0,0,0,0,0,0,0,0,0,0],"trees":[{"base_weights":[6.3860015E-4,5.4809326E-1,-2.5507838E-1,-2.34666E-2,1.0488666E0,-7.9937637E-1,2.2542883E-1,6.650885E-2,5.604937E-3,-5.133834E-2,-6.6888235E-3,5.0421644E-2,-2.8197518E-2],"categories":[],"categories_nodes":[],"categories_segments":[],"categories_sizes":[],"default_left":[0,0,0,0,0,0,0,0,0,0,0,0,0],"id":0,"left_children":[1,3,5,-1,7,9,11,-1,-1,-1,-1,-1,-1],"loss_changes":[3.051856E0,4.0283957E0,4.0669165E0,0E0,1.158031E0,9.50541E-1,5.929384E0,0E0,0E0,0E0,0E0,0E0,0E0],"parents":[2147483647,0,0,1,1,2,2,4,4,5,5,6,6],"right_children":[2,4,6,-1,8,10,12,-1,-1,-1,-1,-1,-1],"split_conditions":[-6.110627E-1,-4.0180618E-1,-1.515331E-1,-2.34666E-2,8.4097993E-1,3.371477E-1,4.0432534E-1,6.650885E-2,5.604937E-3,-5.133834E-2,-6.6888235E-3,5.0421644E-2,-2.8197518E-2],"split_indices":[2,0,1,0,0,0,0,0,0,0,0,0,0],"split_type":[0,0,0,0,0,0,0,0,0,0,0,0,0],"sum_hessian":[1.9801327E1,5.9403977E0,1.3860928E1,1.9801326E0,3.9602652E0,6.1879144E0,7.6730137E0,2.7226822E0,1.2375829E0,4.207782E0,1.9801326E0,3.7127485E0,3.9602652E0],"tree_param":{"num_deleted":"0","num_feature":"3","num_nodes":"13","size_leaf_vector":"1"}},{"base_weights":[1.3154262E-3,5.291185E-1,-2.4449775E-1,-2.2652922E-2,1.0155268E0,-7.6526695E-1,2.1706022E-1,6.444816E-2,5.451692E-3,-1.6578235E-2,-5.9774023E-2,4.865701E-2,-2.7013928E-2],"categories":[],"categories_nodes":[],"categories_segments":[],"categories_sizes":[],"default_left":[0,0,0,0,0,0,0,0,0,0,0,0,0],"id":1,"left_children":[1,3,5,-1,7,9,11,-1,-1,-1,-1,-1,-1],"loss_changes":[2.82715E0,3.767538E0,3.7404554E0,0E0,1.0835876E0,9.4852877E-1,5.485959E0,0E0,0E0,0E0,0E0,0E0,0E0],"parents":[2147483647,0,0,1,1,2,2,4,4,5,5,6,6],"right_children":[2,4,6,-1,8,10,12,-1,-1,-1,-1,-1,-1],"split_conditions":[-6.110627E-1,-4.0180618E-1,-1.515331E-1,-2.2652922E-2,8.4097993E-1,7.7526104E-1,4.0432534E-1,6.444816E-2,5.451692E-3,-1.6578235E-2,-5.9774023E-2,4.865701E-2,-2.7013928E-2],"split_indices":[2,0,1,0,0,2,0,0,0,0,0,0,0],"split_type":[0,0,0,0,0,0,0,0,0,0,0,0,0],"sum_hessian":[1.9793604E1,5.923122E0,1.38704815E1,1.9844986E0,3.9386234E0,6.208036E0,7.662446E0,2.7017412E0,1.2368821E0,3.9732563E0,2.2347796E0,3.6918175E0,3.9706285E0],"tree_param":{"num_deleted":"0","num_feature":"3","num_nodes":"13","size_leaf_vector":"1"}},{"base_weights":[9.818698E-4,5.112843E-1,-2.3591405E-1,-2.187189E-2,9.8432654E-1,-7.361207E-1,2.0917143E-1,6.254113E-2,5.3026653E-3,-4.7716018E-2,-5.3624255E-3,4.6993654E-2,-2.588961E-2],"categories":[],"categories_nodes":[],"categories_segments":[],"categories_sizes":[],"default_left":[0,0,0,0,0,0,0,0,0,0,0,0,0],"id":2,"left_children":[1,3,5,-1,7,9,11,-1,-1,-1,-1,-1,-1],"loss_changes":[2.631349E0,3.5274E0,3.4642253E0,0E0,1.0170851E0,8.886566E-1,5.0796165E0,0E0,0E0,0E0,0E0,0E0,0E0],"parents":[2147483647,0,0,1,1,2,2,4,4,5,5,6,6],"right_children":[2,4,6,-1,8,10,12,-1,-1,-1,-1,-1,-1],"split_conditions":[-6.110627E-1,-4.0180618E-1,-1.515331E-1,-2.187189E-2,8.4097993E-1,3.371477E-1,4.0432534E-1,6.254113E-2,5.3026653E-3,-4.7716018E-2,-5.3624255E-3,4.6993654E-2,-2.588961E-2],"split_indices":[2,0,1,0,0,0,0,0,0,0,0,0,0],"split_type":[0,0,0,0,0,0,0,0,0,0,0,0,0],"sum_hessian":[1.9768963E1,5.9004397E0,1.3868525E1,1.988207E0,3.9122326E0,6.222038E0,7.6464863E0,2.6760502E0,1.2361825E0,4.2350817E0,1.9869562E0,3.667377E0,3.9791093E0],"tree_param":{"num_deleted":"0","num_feature":"3","num_nodes":"13","size_leaf_vector":"1"}},{"base_weights":[1.7018978E-3,4.9448314E-1,-2.263626E-1,-2.1121731E-2,9.5503885E-1,-7.056303E-1,2.0171925E-1,6.0769957E-2,5.1577473E-3,-1.4496273E-2,-5.633731E-2,4.542133E-2,-2.4820369E-2],"categories":[],"categories_nodes":[],"categories_segments":[],"categories_sizes":[],"default_left":[0,0,0,0,0,0,0,0,0,0,0,0,0],"id":3,"left_children":[1,3,5,-1,7,9,11,-1,-1,-1,-1,-1,-1],"loss_changes":[2.4418187E0,3.3058658E0,3.1907117E0,0E0,9.573746E-1,9.394088E-1,4.7066803E0,0E0,0E0,0E0,0E0,0E0,0E0],"parents":[2147483647,0,0,1,1,2,2,4,4,5,5,6,6],"right_children":[2,4,6,-1,8,10,12,-1,-1,-1,-1,-1,-1],"split_conditions":[-6.110627E-1,-4.0180618E-1,-1.515331E-1,-2.1121731E-2,8.4097993E-1,7.7526104E-1,4.0432534E-1,6.0769957E-2,5.1577473E-3,-1.4496273E-2,-5.633731E-2,4.542133E-2,-2.4820369E-2],"split_indices":[2,0,1,0,0,2,0,0,0,0,0,0,0],"split_type":[0,0,0,0,0,0,0,0,0,0,0,0,0],"sum_hessian":[1.9731125E1,5.873032E0,1.3858092E1,1.9913121E0,3.88172E0,6.232272E0,7.6258197E0,2.6462352E0,1.2354848E0,3.9859796E0,2.2462926E0,3.6399236E0,3.9858963E0],"tree_param":{"num_deleted":"0","num_feature":"3","num_nodes":"13","size_leaf_vector":"1"}},{"base_weights":[1.4489152E-3,2.0751995E-1,-5.1050967E-1,-3.9670438E-1,7.433243E-1,-8.550456E-1,1.7312102E-2,-4.6076983E-2,4.0183835E-2,5.29727E-2,-2.251372E-2,2.9565971E-3,-7.0187196E-2],"categories":[],"categories_nodes":[],"categories_segments":[],"categories_sizes":[],"default_left":[0,0,0,0,0,0,0,0,0,0,0,0,0],"id":4,"left_children":[1,3,5,7,9,11,-1,-1,-1,-1,-1,-1,-1],"loss_changes":[2.2877328E0,5.298795E0,2.1333299E0,5.7279453E0,3.6994376E0,2.45426E0,0E0,0E0,0E0,0E0,0E0,0E0,0E0],"parents":[2147483647,0,0,1,1,2,2,3,3,4,4,5,5],"right_children":[2,4,6,8,10,12,-1,-1,-1,-1,-1,-1,-1],"split_conditions":[8.745687E-1,-4.0180618E-1,9.5170224E-1,5.574948E-1,1.1821561E0,1.8832397E-1,1.7312102E-2,-4.6076983E-2,4.0183835E-2,5.29727E-2,-2.251372E-2,2.9565971E-3,-7.0187196E-2],"split_indices":[0,0,2,1,2,2,0,0,0,0,0,0,0],"split_type":[0,0,0,0,0,0,0,0,0,0,0,0,0],"sum_hessian":[1.9680525E1,1.4456301E1,5.2242236E0,6.91636E0,7.539941E0,3.7273078E0,1.4969159E0,4.9739323E0,1.9424279E0,6.0499682E0,1.4899726E0,1.7327061E0,1.9946017E0],"tree_param":{"num_deleted":"0","num_feature":"3","num_nodes":"13","size_leaf_vector":"1"}},{"base_weights":[2.5429856E-4,4.6726426E-1,-2.1445115E-1,-1.957168E-2,9.044644E-1,-6.6419613E-1,1.8988164E-1,5.7733964E-2,4.936047E-3,-1.3365487E-2,-5.3456098E-2,-1.7800018E-2,5.0676864E-2],"categories":[],"categories_nodes":[],"categories_segments":[],"categories_sizes":[],"default_left":[0,0,0,0,0,0,0,0,0,0,0,0,0],"id":5,"left_children":[1,3,5,-1,7,9,11,-1,-1,-1,-1,-1,-1],"loss_changes":[2.1682665E0,2.9108167E0,2.8201065E0,0E0,8.56719E-1,8.770716E-1,4.218026E0,0E0,0E0,0E0,0E0,0E0,0E0],"parents":[2147483647,0,0,1,1,2,2,4,4,5,5,6,6],"right_children":[2,4,6,-1,8,10,12,-1,-1,-1,-1,-1,-1],"split_conditions":[-6.110627E-1,-4.0180618E-1,-1.515331E-1,-1.957168E-2,8.4097993E-1,7.7526104E-1,9.5170224E-1,5.7733964E-2,4.936047E-3,-1.3365487E-2,-5.3456098E-2,-1.7800018E-2,5.0676864E-2],"split_indices":[2,0,1,0,0,2,2,0,0,0,0,0,0],"split_type":[0,0,0,0,0,0,0,0,0,0,0,0,0],"sum_hessian":[1.9625011E1,5.810398E0,1.3814613E1,1.995584E0,3.814814E0,6.2357755E0,7.5788374E0,2.580429E0,1.2343849E0,3.9875445E0,2.248231E0,4.8994694E0,2.679368E0],"tree_param":{"num_deleted":"0","num_feature":"3","num_nodes":"13","size_leaf_vector":"1"}},{"base_weights":[7.681628E-4,2.017772E-1,-4.9521533E-1,-3.6377126E-1,7.0799863E-1,-8.180801E-1,1.5830973E-2,-4.3183018E-2,3.9096564E-2,5.0404E-2,-2.076233E-2,2.8942476E-3,-6.7157574E-2],"categories":[],"categories_nodes":[],"categories_segments":[],"categories_sizes":[],"default_left":[0,0,0,0,0,0,0,0,0,0,0,0,0],"id":6,"left_children":[1,3,5,7,9,11,-1,-1,-1,-1,-1,-1,-1],"loss_changes":[2.1512425E0,4.652755E0,1.8902441E0,5.2065754E0,3.2635593E0,2.2540276E0,0E0,0E0,0E0,0E0,0E0,0E0,0E0],"parents":[2147483647,0,0,1,1,2,2,3,3,4,4,5,5],"right_children":[2,4,6,8,10,12,-1,-1,-1,-1,-1,-1,-1],"split_conditions":[8.745687E-1,-4.0180618E-1,9.5170224E-1,5.574948E-1,1.1821561E0,1.8832397E-1,1.5830973E-2,-4.3183018E-2,3.9096564E-2,5.0404E-2,-2.076233E-2,2.8942476E-3,-6.7157574E-2],"split_indices":[0,0,2,1,2,2,0,0,0,0,0,0,0],"split_type":[0,0,0,0,0,0,0,0,0,0,0,0,0],"sum_hessian":[1.95755E1,1.4352137E1,5.223365E0,6.9117537E0,7.440383E0,3.7316167E0,1.4917481E0,4.98353E0,1.9282233E0,5.952632E0,1.4877509E0,1.7319688E0,1.9996481E0],"tree_param":{"num_deleted":"0","num_feature":"3","num_nodes":"13","size_leaf_vector":"1"}},{"base_weights":[-2.93332E-4,1.9441997E-1,-4.7850853E-1,-3.4661657E-1,6.8129915E-1,-7.910578E-1,1.5368166E-2,2.5188213E-2,-5.1650465E-2,4.8692685E-2,-2.0140316E-2,2.8030246E-3,-6.494715E-2],"categories":[],"categories_nodes":[],"categories_segments":[],"categories_sizes":[],"default_left":[0,0,0,0,0,0,0,0,0,0,0,0,0],"id":7,"left_children":[1,3,5,7,9,11,-1,-1,-1,-1,-1,-1,-1],"loss_changes":[2.0016303E0,4.2605166E0,1.7708822E0,5.1310277E0,3.0495565E0,2.107781E0,0E0,0E0,0E0,0E0,0E0,0E0,0E0],"parents":[2147483647,0,0,1,1,2,2,3,3,4,4,5,5],"right_children":[2,4,6,8,10,12,-1,-1,-1,-1,-1,-1,-1],"split_conditions":[8.745687E-1,-4.0180618E-1,9.5170224E-1,-1.1743488E0,1.1821561E0,1.8832397E-1,1.5368166E-2,2.5188213E-2,-5.1650465E-2,4.8692685E-2,-2.0140316E-2,2.8030246E-3,-6.494715E-2],"split_indices":[0,0,2,0,2,2,0,0,0,0,0,0,0],"split_type":[0,0,0,0,0,0,0,0,0,0,0,0,0],"sum_hessian":[1.949725E1,1.42774105E1,5.2198396E0,6.899045E0,7.378366E0,3.7298434E0,1.4899961E0,3.200265E0,3.6987798E0,5.890473E0,1.4878929E0,1.7314763E0,1.9983672E0],"tree_param":{"num_deleted":"0","num_feature":"3","num_nodes":"13","size_leaf_vector":"1"}},{"base_weights":[-2.3850908E-3,1.8574484E-1,-4.6271187E-1,-1.5654229E-1,4.5710094E-2,2.9155305E-2,-5.017651E-2,-3.7445027E-2,3.2599233E-2,-2.0824708E-2,3.046354E-2],"categories":[],"categories_nodes":[],"categories_segments":[],"categories_sizes":[],"default_left":[0,0,0,0,0,0,0,0,0,0,0],"id":8,"left_children":[1,3,5,7,-1,9,-1,-1,-1,-1,-1],"loss_changes":[1.8547279E0,3.9362102E0,1.6817087E0,5.8539367E0,0E0,1.346034E0,0E0,0E0,0E0,0E0,0E0],"parents":[2147483647,0,0,1,1,2,2,3,3,5,5],"right_children":[2,4,6,8,-1,10,-1,-1,-1,-1,-1],"split_conditions":[8.745687E-1,5.574948E-1,9.3794876E-1,-6.591804E-2,4.5710094E-2,4.1914788E-1,-5.017651E-2,-3.7445027E-2,3.2599233E-2,-2.0824708E-2,3.046354E-2],"split_indices":[0,1,1,0,0,1,0,0,0,0,0],"split_type":[0,0,0,0,0,0,0,0,0,0,0],"sum_hessian":[1.9424435E1,1.4212467E1,5.2119684E0,1.0203265E1,4.0092025E0,3.2249806E0,1.9869876E0,5.9314218E0,4.271843E0,1.9833808E0,1.2415998E0],"tree_param":{"num_deleted":"0","num_feature":"3","num_nodes":"11","size_leaf_vector":"1"}},{"base_weights":[-2.1875796E-3,4.3405843E-1,-2.0028125E-1,-1.6858235E-2,8.344871E-1,-6.146776E-1,1.755937E-1,5.3215027E-2,5.375249E-3,1.9756684E-3,-3.9660446E-2,4.06816E-2,-2.20141E-2],"categories":[],"categories_nodes":[],"categories_segments":[],"categories_sizes":[],"default_left":[0,0,0,0,0,0,0,0,0,0,0,0,0],"id":9,"left_children":[1,3,5,-1,7,9,11,-1,-1,-1,-1,-1,-1],"loss_changes":[1.8461486E0,2.3420916E0,2.3951645E0,0E0,6.674926E-1,8.7300515E-1,3.6895988E0,0E0,0E0,0E0,0E0,0E0,0E0],"parents":[2147483647,0,0,1,1,2,2,4,4,5,5,6,6],"right_children":[2,4,6,-1,8,10,12,-1,-1,-1,-1,-1,-1],"split_conditions":[-6.110627E-1,-4.0180618E-1,-1.515331E-1,-1.6858235E-2,8.4097993E-1,-1.2079377E0,4.0432534E-1,5.3215027E-2,5.375249E-3,1.9756684E-3,-3.9660446E-2,4.06816E-2,-2.20141E-2],"split_indices":[2,0,1,0,0,0,0,0,0,0,0,0,0],"split_type":[0,0,0,0,0,0,0,0,0,0,0,0,0],"sum_hessian":[1.9357141E1,5.6729264E0,1.3684215E1,1.9927987E0,3.6801276E0,6.206414E0,7.477801E0,2.4436448E0,1.2364829E0,1.4975666E0,4.7088475E0,3.515105E0,3.9626958E0],"tree_param":{"num_deleted":"0","num_feature":"3","num_nodes":"13","size_leaf_vector":"1"}},{"base_weights":[-8.725336E-4,4.2164567E-1,-1.9197708E-1,-1.6297368E-2,8.13387E-1,-5.8927697E-1,1.697891E-1,5.201604E-2,5.2283294E-3,-1.0820481E-2,-4.9027026E-2,-1.6995613E-2,4.7286447E-2],"categories":[],"categories_nodes":[],"categories_segments":[],"categories_sizes":[],"default_left":[0,0,0,0,0,0,0,0,0,0,0,0,0],"id":10,"left_children":[1,3,5,-1,7,9,11,-1,-1,-1,-1,-1,-1],"loss_changes":[1.7181655E0,2.206119E0,2.205508E0,0E0,6.367717E-1,8.389592E-1,3.6608672E0,0E0,0E0,0E0,0E0,0E0,0E0],"parents":[2147483647,0,0,1,1,2,2,4,4,5,5,6,6],"right_children":[2,4,6,-1,8,10,12,-1,-1,-1,-1,-1,-1],"split_conditions":[-6.110627E-1,-4.0180618E-1,-1.515331E-1,-1.6297368E-2,8.4097993E-1,7.7526104E-1,9.5170224E-1,5.201604E-2,5.2283294E-3,-1.0820481E-2,-4.9027026E-2,-1.6995613E-2,4.7286447E-2],"split_indices":[2,0,1,0,0,2,2,0,0,0,0,0,0],"split_type":[0,0,0,0,0,0,0,0,0,0,0,0,0],"sum_hessian":[1.9276379E1,5.6276636E0,1.3648715E1,1.9927268E0,3.6349366E0,6.2051682E0,7.443547E0,2.3991525E0,1.235784E0,3.972525E0,2.2326431E0,4.831653E0,2.611894E0],"tree_param":{"num_deleted":"0","num_feature":"3","num_nodes":"13","size_leaf_vector":"1"}},{"base_weights":[-1.886898E-4,1.152214E-1,-3.5333257E-2,-2.0595475E-1,7.0600635E-1,-3.4940124E-2,1.6713666E-2,5.039217E-2,3.197495E-3],"categories":[],"categories_nodes":[],"categories_segments":[],"categories_sizes":[],"default_left":[0,0,0,0,0,0,0,0,0],"id":11,"left_children":[1,3,-1,5,7,-1,-1,-1,-1],"loss_changes":[1.7286795E0,3.6037242E0,0E0,3.58337E0,1.2232707E0,0E0,0E0,0E0,0E0],"parents":[2147483647,0,0,1,1,3,3,4,4],"right_children":[2,4,-1,6,8,-1,-1,-1,-1],"split_conditions":[1.3112233E0,5.574948E-1,-3.5333257E-2,-6.591804E-2,1.6920364E-1,-3.4940124E-2,1.6713666E-2,5.039217E-2,3.197495E-3],"split_indices":[0,1,0,0,0,0,0,0,0],"split_type":[0,0,0,0,0,0,0,0,0],"sum_hessian":[1.920318E1,1.722604E1,1.9771414E0,1.1581323E1,5.6447177E0,5.9027433E0,5.6785793E0,3.4521275E0,2.1925902E0],"tree_param":{"num_deleted":"0","num_feature":"3","num_nodes":"9","size_leaf_vector":"1"}},{"base_weights":[-1.1675761E-4,1.1187697E-1,-3.4145646E-2,-1.9739565E-1,6.8390346E-1,-3.3472694E-2,1.6035816E-2,4.8976548E-2,3.088122E-3],"categories":[],"categories_nodes":[],"categories_segments":[],"categories_sizes":[],"default_left":[0,0,0,0,0,0,0,0,0],"id":12,"left_children":[1,3,-1,5,7,-1,-1,-1,-1],"loss_changes":[1.6163062E0,3.3475995E0,0E0,3.2872787E0,1.15276E0,0E0,0E0,0E0,0E0],"parents":[2147483647,0,0,1,1,3,3,4,4],"right_children":[2,4,-1,6,8,-1,-1,-1,-1],"split_conditions":[1.3112233E0,5.574948E-1,-3.4145646E-2,-6.591804E-2,1.6920364E-1,-3.3472694E-2,1.6035816E-2,4.8976548E-2,3.088122E-3],"split_indices":[0,1,0,0,0,0,0,0,0],"split_type":[0,0,0,0,0,0,0,0,0],"sum_hessian":[1.9137653E1,1.7159298E1,1.978357E0,1.1562707E1,5.5965905E0,5.897405E0,5.665302E0,3.4044297E0,2.1921606E0],"tree_param":{"num_deleted":"0","num_feature":"3","num_nodes":"9","size_leaf_vector":"1"}},{"base_weights":[-2.855892E-5,4.1421437E-1,-1.8655759E-1,-1.4928979E-2,7.892481E-1,4.9024862E-1,-3.6121508E-1,5.0208338E-2,5.873433E-3,-1.184717E-2,4.990312E-2,-3.01063E-2,8.356399E-3],"categories":[],"categories_nodes":[],"categories_segments":[],"categories_sizes":[],"default_left":[0,0,0,0,0,0,0,0,0,0,0,0,0],"id":13,"left_children":[1,3,5,-1,7,9,11,-1,-1,-1,-1,-1,-1],"loss_changes":[1.6277564E0,1.9841323E0,1.8941302E0,0E0,5.404415E-1,1.4934266E0,1.6435238E0,0E0,0E0,0E0,0E0,0E0,0E0],"parents":[2147483647,0,0,1,1,2,2,4,4,5,5,6,6],"right_children":[2,4,6,-1,8,10,12,-1,-1,-1,-1,-1,-1],"split_conditions":[-6.110627E-1,-4.0180618E-1,-1.1743488E0,-1.4928979E-2,8.4097993E-1,-1.4430593E0,1.0093157E0,5.0208338E-2,5.873433E-3,-1.184717E-2,4.990312E-2,-3.01063E-2,8.356399E-3],"split_indices":[2,0,0,0,0,0,2,0,0,0,0,0,0],"split_type":[0,0,0,0,0,0,0,0,0,0,0,0,0],"sum_hessian":[1.9066195E1,5.540727E0,1.3525468E1,1.9804733E0,3.5602536E0,2.4037821E0,1.1121686E1,2.322457E0,1.2377967E0,1.2077223E0,1.1960598E0,7.54274E0,3.5789459E0],"tree_param":{"num_deleted":"0","num_feature":"3","num_nodes":"13","size_leaf_vector":"1"}},{"base_weights":[2.9168604E-3,2.7609664E-1,-2.6231968E-1,-3.0925637E-1,7.1737117E-1,-6.2091667E-2,1.03439376E-1,2.4396649E-2,-4.2353645E-2,4.9481664E-2,-4.2737587E-3,-1.8389134E-2,2.4222644E-2],"categories":[],"categories_nodes":[],"categories_segments":[],"categories_sizes":[],"default_left":[0,0,0,0,0,0,0,0,0,0,0,0,0],"id":14,"left_children":[1,3,5,7,9,-1,11,-1,-1,-1,-1,-1,-1],"loss_changes":[1.5226334E0,2.89447E0,3.9503517E0,2.6196897E0,1.4399743E0,0E0,1.7384773E0,0E0,0E0,0E0,0E0,0E0,0E0],"parents":[2147483647,0,0,1,1,2,2,3,3,4,4,6,6],"right_children":[2,4,6,8,10,-1,12,-1,-1,-1,-1,-1,-1],"split_conditions":[1.9192483E-1,-4.0180618E-1,4.187778E-1,-1.1743488E0,1.0761015E0,-6.2091667E-2,-3.7634683E-1,2.4396649E-2,-4.2353645E-2,4.9481664E-2,-4.2737587E-3,-1.8389134E-2,2.4222644E-2],"split_indices":[2,0,2,0,0,0,1,0,0,0,0,0,0],"split_type":[0,0,0,0,0,0,0,0,0,0,0,0,0],"sum_hessian":[1.9014664E1,9.3469E0,9.667764E0,4.1461644E0,5.200735E0,1.9772928E0,7.6904707E0,1.7076775E0,2.438487E0,3.7099552E0,1.49078E0,3.4537444E0,4.2367263E0],"tree_param":{"num_deleted":"0","num_feature":"3","num_nodes":"13","size_leaf_vector":"1"}},{"base_weights":[1.3934674E-3,1.101591E-1,-3.2767653E-2,-1.8787888E-1,6.633927E-1,-3.1405017E-2,1.4950856E-2,4.728123E-2,3.5245337E-3],"categories":[],"categories_nodes":[],"categories_segments":[],"categories_sizes":[],"default_left":[0,0,0,0,0,0,0,0,0],"id":15,"left_children":[1,3,-1,5,7,-1,-1,-1,-1],"loss_changes":[1.49496E0,3.0833352E0,0E0,2.8544354E0,1.0215409E0,0E0,0E0,0E0,0E0],"parents":[2147483647,0,0,1,1,3,3,4,4],"right_children":[2,4,-1,6,8,-1,-1,-1,-1],"split_conditions":[1.3112233E0,5.574948E-1,-3.2767653E-2,-6.591804E-2,1.6920364E-1,-3.1405017E-2,1.4950856E-2,4.728123E-2,3.5245337E-3],"split_indices":[0,1,0,0,0,0,0,0,0],"split_type":[0,0,0,0,0,0,0,0,0],"sum_hessian":[1.8917934E1,1.6944048E1,1.9738857E0,1.14409685E1,5.5030794E0,5.85617E0,5.584799E0,3.325279E0,2.1778004E0],"tree_param":{"num_deleted":"0","num_feature":"3","num_nodes":"9","size_leaf_vector":"1"}},{"base_weights":[1.4633406E-3,3.9555955E-1,-1.7396583E-1,-1.3526278E-2,7.5094575E-1,4.8670542E-1,-3.445333E-1,4.7873016E-2,5.9223156E-3,-1.1041043E-2,4.8873227E-2,-2.8486481E-2,7.5951107E-3],"categories":[],"categories_nodes":[],"categories_segments":[],"categories_sizes":[],"default_left":[0,0,0,0,0,0,0,0,0,0,0,0,0],"id":16,"left_children":[1,3,5,-1,7,9,11,-1,-1,-1,-1,-1,-1],"loss_changes":[1.4404771E0,1.7221036E0,1.7930388E0,0E0,4.677341E-1,1.387418E0,1.4335929E0,0E0,0E0,0E0,0E0,0E0,0E0],"parents":[2147483647,0,0,1,1,2,2,4,4,5,5,6,6],"right_children":[2,4,6,-1,8,10,12,-1,-1,-1,-1,-1,-1],"split_conditions":[-6.110627E-1,-4.0180618E-1,-1.1743488E0,-1.3526278E-2,8.4097993E-1,-1.4430593E0,1.0093157E0,4.7873016E-2,5.9223156E-3,-1.1041043E-2,4.8873227E-2,-2.8486481E-2,7.5951107E-3],"split_indices":[2,0,0,0,0,0,2,0,0,0,0,0,0],"split_type":[0,0,0,0,0,0,0,0,0,0,0,0,0],"sum_hessian":[1.884008E1,5.416737E0,1.3423344E1,1.9676466E0,3.4490907E0,2.374105E0,1.1049239E1,2.2128203E0,1.2362704E0,1.1975877E0,1.1765171E0,7.4995866E0,3.549652E0],"tree_param":{"num_deleted":"0","num_feature":"3","num_nodes":"13","size_leaf_vector":"1"}},{"base_weights":[4.35545E-3,1.09414965E-1,-3.137197E-2,-1.7926419E-1,6.4730227E-1,-2.998221E-2,1.43389525E-2,4.6055388E-2,3.7270528E-3],"categories":[],"categories_nodes":[],"categories_segments":[],"categories_sizes":[],"default_left":[0,0,0,0,0,0,0,0,0],"id":17,"left_children":[1,3,-1,5,7,-1,-1,-1,-1],"loss_changes":[1.3817044E0,2.8819923E0,0E0,2.5964065E0,9.4099665E-1,0E0,0E0,0E0,0E0],"parents":[2147483647,0,0,1,1,3,3,4,4],"right_children":[2,4,-1,6,8,-1,-1,-1,-1],"split_conditions":[1.3112233E0,5.574948E-1,-3.137197E-2,-6.591804E-2,1.6920364E-1,-2.998221E-2,1.43389525E-2,4.6055388E-2,3.7270528E-3],"split_indices":[0,1,0,0,0,0,0,0,0],"split_type":[0,0,0,0,0,0,0,0,0],"sum_hessian":[1.8782032E1,1.6813051E1,1.9689797E0,1.1374948E1,5.438104E0,5.829739E0,5.5452085E0,3.2677736E0,2.1703305E0],"tree_param":{"num_deleted":"0","num_feature":"3","num_nodes":"9","size_leaf_vector":"1"}},{"base_weights":[4.34686E-3,2.6540384E-1,-2.4677123E-1,-2.7796146E-1,6.785282E-1,-5.9195854E-2,1.0367036E-1,2.4313485E-2,-3.996886E-2,4.6861894E-2,-3.340796E-3,-1.7110037E-2,2.3328478E-2],"categories":[],"categories_nodes":[],"categories_segments":[],"categories_sizes":[],"default_left":[0,0,0,0,0,0,0,0,0,0,0,0,0],"id":18,"left_children":[1,3,5,7,9,-1,11,-1,-1,-1,-1,-1,-1],"loss_changes":[1.3569673E0,2.4649858E0,3.5906239E0,2.4167407E0,1.2295041E0,0E0,1.552002E0,0E0,0E0,0E0,0E0,0E0,0E0],"parents":[2147483647,0,0,1,1,2,2,3,3,4,4,6,6],"right_children":[2,4,6,8,10,-1,12,-1,-1,-1,-1,-1,-1],"split_conditions":[1.9192483E-1,-4.0180618E-1,4.187778E-1,-1.1743488E0,1.0761015E0,-5.9195854E-2,-3.7634683E-1,2.4313485E-2,-3.996886E-2,4.6861894E-2,-3.340796E-3,-1.7110037E-2,2.3328478E-2],"split_indices":[2,0,2,0,0,0,1,0,0,0,0,0,0],"split_type":[0,0,0,0,0,0,0,0,0,0,0,0,0],"sum_hessian":[1.870027E1,9.140801E0,9.559469E0,4.0893807E0,5.05142E0,1.9544771E0,7.604992E0,1.6858544E0,2.4035263E0,3.5587263E0,1.492694E0,3.4379895E0,4.167002E0],"tree_param":{"num_deleted":"0","num_feature":"3","num_nodes":"13","size_leaf_vector":"1"}},{"base_weights":[2.9236875E-3,5.119947E-1,-1.2294132E-1,3.7641235E-4,4.792121E-2,-4.925974E-2,1.4718007E-1,2.6094124E-2,-1.9067941E-2],"categories":[],"categories_nodes":[],"categories_segments":[],"categories_sizes":[],"default_left":[0,0,0,0,0,0,0,0,0],"id":19,"left_children":[1,3,5,-1,-1,-1,7,-1,-1],"loss_changes":[1.3183801E0,9.1111505E-1,3.9917374E0,0E0,0E0,0E0,2.8619437E0,0E0,0E0],"parents":[2147483647,0,0,1,1,2,2,6,6],"right_children":[2,4,6,-1,-1,-1,8,-1,-1],"split_conditions":[-1.1743488E0,-1.4430593E0,-5.025726E-1,3.7641235E-4,4.792121E-2,-4.925974E-2,8.745687E-1,2.6094124E-2,-1.9067941E-2],"split_indices":[0,0,0,0,0,0,0,0,0],"split_type":[0,0,0,0,0,0,0,0,0],"sum_hessian":[1.8593441E1,3.077686E0,1.5515756E1,1.9223212E0,1.155365E0,3.0697112E0,1.2446044E1,7.2902718E0,5.155772E0],"tree_param":{"num_deleted":"0","num_feature":"3","num_nodes":"9","size_leaf_vector":"1"}},{"base_weights":[3.120974E-3,2.587552E-1,-2.4119747E-1,-2.5673532E-1,6.5363985E-1,-5.7221115E-2,9.590964E-2,2.3214305E-2,-3.7537914E-2,4.5114618E-2,-2.6676815E-3,-1.7020408E-2,2.2664612E-2],"categories":[],"categories_nodes":[],"categories_segments":[],"categories_sizes":[],"default_left":[0,0,0,0,0,0,0,0,0,0,0,0,0],"id":20,"left_children":[1,3,5,7,9,-1,11,-1,-1,-1,-1,-1,-1],"loss_changes":[1.2818323E0,2.2082305E0,3.3070612E0,2.153037E0,1.0955007E0,0E0,1.4905568E0,0E0,0E0,0E0,0E0,0E0,0E0],"parents":[2147483647,0,0,1,1,2,2,3,3,4,4,6,6],"right_children":[2,4,6,8,10,-1,12,-1,-1,-1,-1,-1,-1],"split_conditions":[1.9192483E-1,-4.0180618E-1,4.187778E-1,-1.1743488E0,1.0761015E0,-5.7221115E-2,-3.7634683E-1,2.3214305E-2,-3.7537914E-2,4.5114618E-2,-2.6676815E-3,-1.7020408E-2,2.2664612E-2],"split_indices":[2,0,2,0,0,0,1,0,0,0,0,0,0],"split_type":[0,0,0,0,0,0,0,0,0,0,0,0,0],"sum_hessian":[1.8524437E1,9.023704E0,9.500733E0,4.0658746E0,4.9578285E0,1.9312972E0,7.569436E0,1.6776115E0,2.3882632E0,3.463473E0,1.4943557E0,3.429706E0,4.13973E0],"tree_param":{"num_deleted":"0","num_feature":"3","num_nodes":"13","size_leaf_vector":"1"}},{"base_weights":[1.8195792E-3,1.0386969E-1,-3.0013744E-2,-1.7435406E-1,6.244944E-1,1.1634543E-3,-5.349816E-2,4.408321E-2,4.345213E-3],"categories":[],"categories_nodes":[],"categories_segments":[],"categories_sizes":[],"default_left":[0,0,0,0,0,0,0,0,0],"id":21,"left_children":[1,3,-1,5,7,-1,-1,-1,-1],"loss_changes":[1.2550505E0,2.6365902E0,0E0,2.176171E0,7.9380465E-1,0E0,0E0,0E0,0E0],"parents":[2147483647,0,0,1,1,3,3,4,4],"right_children":[2,4,-1,6,8,-1,-1,-1,-1],"split_conditions":[1.3112233E0,5.574948E-1,-3.0013744E-2,1.2516071E-1,1.6920364E-1,1.1634543E-3,-5.349816E-2,4.408321E-2,4.345213E-3],"split_indices":[0,1,0,1,0,0,0,0,0],"split_type":[0,0,0,0,0,0,0,0,0],"sum_hessian":[1.8411236E1,1.6450497E1,1.9607396E0,1.1154563E1,5.2959337E0,9.936103E0,1.2184598E0,3.1493375E0,2.146596E0],"tree_param":{"num_deleted":"0","num_feature":"3","num_nodes":"9","size_leaf_vector":"1"}},{"base_weights":[3.170381E-5,3.734279E-1,-1.630283E-1,-1.9747216E-2,4.8697773E-2,4.6113855E-1,-3.2358488E-1,-2.8071737E-2,1.6157903E-2,-1.0543233E-2,4.6556406E-2,-3.3141747E-2,-8.991941E-4],"categories":[],"categories_nodes":[],"categories_segments":[],"categories_sizes":[],"default_left":[0,0,0,0,0,0,0,0,0,0,0,0,0],"id":22,"left_children":[1,3,5,7,-1,9,11,-1,-1,-1,-1,-1,-1],"loss_changes":[1.2391036E0,1.4797969E0,1.5687939E0,1.0578748E0,0E0,1.2419572E0,1.2171274E0,0E0,0E0,0E0,0E0,0E0,0E0],"parents":[2147483647,0,0,1,1,2,2,3,3,5,5,6,6],"right_children":[2,4,6,8,-1,10,12,-1,-1,-1,-1,-1,-1],"split_conditions":[-6.110627E-1,-1.1115795E0,-1.1743488E0,-8.7204957E-1,4.8697773E-2,-1.4430593E0,-1.515331E-1,-2.8071737E-2,1.6157903E-2,-1.0543233E-2,4.6556406E-2,-3.3141747E-2,-8.991941E-4],"split_indices":[2,2,0,0,0,0,1,0,0,0,0,0,0],"split_type":[0,0,0,0,0,0,0,0,0,0,0,0,0],"sum_hessian":[1.835132E1,5.185882E0,1.3165439E1,3.7184618E0,1.4674202E0,2.310643E0,1.0854795E1,1.1943921E0,2.5240698E0,1.177856E0,1.132787E0,4.590211E0,6.2645845E0],"tree_param":{"num_deleted":"0","num_feature":"3","num_nodes":"13","size_leaf_vector":"1"}},{"base_weights":[2.066841E-3,1.0252935E-1,-2.9385662E-2,-1.633083E-1,6.0300285E-1,-2.719315E-2,1.3048884E-2,4.281105E-2,4.088133E-3],"categories":[],"categories_nodes":[],"categories_segments":[],"categories_sizes":[],"default_left":[0,0,0,0,0,0,0,0,0],"id":23,"left_children":[1,3,-1,5,7,-1,-1,-1,-1],"loss_changes":[1.2033774E0,2.4049838E0,0E0,2.0971296E0,7.5190353E-1,0E0,0E0,0E0,0E0],"parents":[2147483647,0,0,1,1,3,3,4,4],"right_children":[2,4,-1,6,8,-1,-1,-1,-1],"split_conditions":[1.3112233E0,5.574948E-1,-2.9385662E-2,-6.591804E-2,1.6920364E-1,-2.719315E-2,1.3048884E-2,4.281105E-2,4.088133E-3],"split_indices":[0,1,0,0,0,0,0,0,0],"split_type":[0,0,0,0,0,0,0,0,0],"sum_hessian":[1.82929E1,1.6336342E1,1.9565583E0,1.11091585E1,5.227184E0,5.7078166E0,5.4013414E0,3.0855598E0,2.1416242E0],"tree_param":{"num_deleted":"0","num_feature":"3","num_nodes":"9","size_leaf_vector":"1"}},{"base_weights":[2.193185E-3,4.9075574E-1,-1.19131334E-1,5.8138586E-4,4.5780417E-2,-4.6172094E-2,1.3281393E-1,2.410827E-2,-1.7492378E-2],"categories":[],"categories_nodes":[],"categories_segments":[],"categories_sizes":[],"default_left":[0,0,0,0,0,0,0,0,0],"id":24,"left_children":[1,3,5,-1,-1,-1,7,-1,-1],"loss_changes":[1.196932E0,8.068669E-1,3.4035366E0,0E0,0E0,0E0,2.3949435E0,0E0,0E0],"parents":[2147483647,0,0,1,1,2,2,6,6],"right_children":[2,4,6,-1,-1,-1,8,-1,-1],"split_conditions":[-1.1743488E0,-1.4430593E0,-5.025726E-1,5.8138586E-4,4.5780417E-2,-4.6172094E-2,8.745687E-1,2.410827E-2,-1.7492378E-2],"split_indices":[0,0,0,0,0,0,0,0,0],"split_type":[0,0,0,0,0,0,0,0,0],"sum_hessian":[1.8206661E1,3.016105E0,1.51905575E1,1.9003507E0,1.1157542E0,2.9876215E0,1.2202935E1,7.079677E0,5.1232586E0],"tree_param":{"num_deleted":"0","num_feature":"3","num_nodes":"9","size_leaf_vector":"1"}},{"base_weights":[2.4626174E-3,3.6683375E-1,-1.5583715E-1,-1.8818418E-2,4.7762293E-2,4.4481865E-1,-3.098181E-1,-2.6466986E-2,1.5245271E-2,-9.897163E-3,4.479892E-2,-3.177378E-2,-8.489353E-4],"categories":[],"categories_nodes":[],"categories_segments":[],"categories_sizes":[],"default_left":[0,0,0,0,0,0,0,0,0,0,0,0,0],"id":25,"left_children":[1,3,5,7,-1,9,11,-1,-1,-1,-1,-1,-1],"loss_changes":[1.1606694E0,1.4004917E0,1.4362786E0,9.317139E-1,0E0,1.1271143E0,1.111077E0,0E0,0E0,0E0,0E0,0E0,0E0],"parents":[2147483647,0,0,1,1,2,2,3,3,5,5,6,6],"right_children":[2,4,6,8,-1,10,12,-1,-1,-1,-1,-1,-1],"split_conditions":[-6.110627E-1,-1.1115795E0,-1.1743488E0,-8.7204957E-1,4.7762293E-2,-1.4430593E0,-1.515331E-1,-2.6466986E-2,1.5245271E-2,-9.897163E-3,4.479892E-2,-3.177378E-2,-8.489353E-4],"split_indices":[2,2,0,0,0,0,1,0,0,0,0,0,0],"split_type":[0,0,0,0,0,0,0,0,0,0,0,0,0],"sum_hessian":[1.8131514E1,5.0924597E0,1.3039055E1,3.6610096E0,1.4314501E0,2.2751718E0,1.0763883E1,1.1741635E0,2.4868462E0,1.1698117E0,1.10536E0,4.542388E0,6.221495E0],"tree_param":{"num_deleted":"0","num_feature":"3","num_nodes":"13","size_leaf_vector":"1"}},{"base_weights":[4.4093537E-3,1.0213629E-1,-2.821942E-2,-1.5322705E-1,5.837929E-1,1.9090178E-3,-5.10327E-2,4.1484036E-2,4.160407E-3],"categories":[],"categories_nodes":[],"categories_segments":[],"categories_sizes":[],"default_left":[0,0,0,0,0,0,0,0,0],"id":26,"left_children":[1,3,-1,5,7,-1,-1,-1,-1],"loss_changes":[1.1176918E0,2.1952648E0,0E0,2.0281732E0,6.8671274E-1,0E0,0E0,0E0,0E0],"parents":[2147483647,0,0,1,1,3,3,4,4],"right_children":[2,4,-1,6,8,-1,-1,-1,-1],"split_conditions":[1.3112233E0,5.574948E-1,-2.821942E-2,1.2516071E-1,1.6920364E-1,1.9090178E-3,-5.10327E-2,4.1484036E-2,4.160407E-3],"split_indices":[0,1,0,1,0,0,0,0,0],"split_type":[0,0,0,0,0,0,0,0,0],"sum_hessian":[1.8070105E1,1.6120779E1,1.949327E0,1.0980855E1,5.1399236E0,9.778995E0,1.2018597E0,3.0059667E0,2.133957E0],"tree_param":{"num_deleted":"0","num_feature":"3","num_nodes":"9","size_leaf_vector":"1"}},{"base_weights":[2.5785859E-3,3.5884362E-1,-1.5160504E-1,-1.8688034E-2,4.6810374E-2,4.283494E-1,-2.9964057E-1,-2.5588198E-2,1.4700497E-2,-9.878857E-3,4.363936E-2,-2.490421E-2,6.7967623E-3],"categories":[],"categories_nodes":[],"categories_segments":[],"categories_sizes":[],"default_left":[0,0,0,0,0,0,0,0,0,0,0,0,0],"id":27,"left_children":[1,3,5,7,-1,9,11,-1,-1,-1,-1,-1,-1],"loss_changes":[1.0984479E0,1.3336375E0,1.3276144E0,8.6453116E-1,0E0,1.0771308E0,1.0804543E0,0E0,0E0,0E0,0E0,0E0,0E0],"parents":[2147483647,0,0,1,1,2,2,3,3,5,5,6,6],"right_children":[2,4,6,8,-1,10,12,-1,-1,-1,-1,-1,-1],"split_conditions":[-6.110627E-1,-1.1115795E0,-1.1743488E0,-8.7204957E-1,4.6810374E-2,-1.4430593E0,1.0093157E0,-2.5588198E-2,1.4700497E-2,-9.878857E-3,4.363936E-2,-2.490421E-2,6.7967623E-3],"split_indices":[2,2,0,0,0,0,2,0,0,0,0,0,0],"split_type":[0,0,0,0,0,0,0,0,0,0,0,0,0],"sum_hessian":[1.8006754E1,5.03809E0,1.2968663E1,3.6312735E0,1.4068166E0,2.2521038E0,1.0716559E1,1.1621448E0,2.4691288E0,1.1657534E0,1.0863504E0,7.263761E0,3.4527981E0],"tree_param":{"num_deleted":"0","num_feature":"3","num_nodes":"13","size_leaf_vector":"1"}},{"base_weights":[5.2139377E-3,1.0026966E-1,-2.7332893E-2,-1.4797916E-1,5.714488E-1,1.8146964E-3,-4.9197152E-2,4.053616E-2,4.308033E-3],"categories":[],"categories_nodes":[],"categories_segments":[],"categories_sizes":[],"default_left":[0,0,0,0,0,0,0,0,0],"id":28,"left_children":[1,3,-1,5,7,-1,-1,-1,-1],"loss_changes":[1.0489235E0,2.074326E0,0E0,1.8743045E0,6.3562286E-1,0E0,0E0,0E0,0E0],"parents":[2147483647,0,0,1,1,3,3,4,4],"right_children":[2,4,-1,6,8,-1,-1,-1,-1],"split_conditions":[1.3112233E0,5.574948E-1,-2.7332893E-2,1.2516071E-1,1.6920364E-1,1.8146964E-3,-4.9197152E-2,4.053616E-2,4.308033E-3],"split_indices":[0,1,0,1,0,0,0,0,0],"split_type":[0,0,0,0,0,0,0,0,0],"sum_hessian":[1.7950388E1,1.6010937E1,1.9394522E0,1.0935382E1,5.0755544E0,9.744063E0,1.1913178E0,2.9502926E0,2.1252618E0],"tree_param":{"num_deleted":"0","num_feature":"3","num_nodes":"9","size_leaf_vector":"1"}},{"base_weights":[3.4283968E-3,2.3902473E-1,-2.1788774E-1,-2.4044697E-1,6.092739E-1,-5.3776857E-2,1.0139752E-1,2.1775825E-2,-3.5266463E-2,4.2317014E-2,-1.8959589E-3,-1.54067725E-2,2.2095067E-2],"categories":[],"categories_nodes":[],"categories_segments":[],"categories_sizes":[],"default_left":[0,0,0,0,0,0,0,0,0,0,0,0,0],"id":29,"left_children":[1,3,5,7,9,-1,11,-1,-1,-1,-1,-1,-1],"loss_changes":[1.0367885E0,1.8550678E0,2.918859E0,1.8503346E0,9.0874004E-1,0E0,1.3062897E0,0E0,0E0,0E0,0E0,0E0,0E0],"parents":[2147483647,0,0,1,1,2,2,3,3,4,4,6,6],"right_children":[2,4,6,8,10,-1,12,-1,-1,-1,-1,-1,-1],"split_conditions":[1.9192483E-1,-4.0180618E-1,4.187778E-1,-1.1743488E0,1.0761015E0,-5.3776857E-2,-3.7634683E-1,2.1775825E-2,-3.5266463E-2,4.2317014E-2,-1.8959589E-3,-1.54067725E-2,2.2095067E-2],"split_indices":[2,0,2,0,0,0,1,0,0,0,0,0,0],"split_type":[0,0,0,0,0,0,0,0,0,0,0,0,0],"sum_hessian":[1.7885384E1,8.624442E0,9.260941E0,3.9106903E0,4.7137523E0,1.8697981E0,7.391143E0,1.6193042E0,2.2913861E0,3.2248013E0,1.4889511E0,3.3986075E0,3.992535E0],"tree_param":{"num_deleted":"0","num_feature":"3","num_nodes":"13","size_leaf_vector":"1"}},{"base_weights":[2.2355968E-3,4.5192778E-1,-1.09907776E-1,4.7469776E-4,4.2541116E-2,-4.81751E-2,1.0059876E-1,2.9370952E-2,-1.082235E-2],"categories":[],"categories_nodes":[],"categories_segments":[],"categories_sizes":[],"default_left":[0,0,0,0,0,0,0,0,0],"id":30,"left_children":[1,3,5,-1,-1,-1,7,-1,-1],"loss_changes":[9.9614793E-1,6.875848E-1,2.9407227E0,0E0,0E0,0E0,2.2263768E0,0E0,0E0],"parents":[2147483647,0,0,1,1,2,2,6,6],"right_children":[2,4,6,-1,-1,-1,8,-1,-1],"split_conditions":[-1.1743488E0,-1.4430593E0,-8.7204957E-1,4.7469776E-4,4.2541116E-2,-4.81751E-2,-1.6095759E-1,2.9370952E-2,-1.082235E-2],"split_indices":[0,0,0,0,0,0,2,0,0],"split_type":[0,0,0,0,0,0,0,0,0],"sum_hessian":[1.7768147E1,2.941778E0,1.4826368E1,1.8801786E0,1.0615993E0,2.2254019E0,1.2600966E1,4.6334953E0,7.9674706E0],"tree_param":{"num_deleted":"0","num_feature":"3","num_nodes":"9","size_leaf_vector":"1"}},{"base_weights":[2.87064E-3,9.696813E-2,-2.6817663E-2,-1.4330316E-1,5.5506086E-1,1.8463342E-3,-4.7968097E-2,3.9202E-2,4.613533E-3],"categories":[],"categories_nodes":[],"categories_segments":[],"categories_sizes":[],"default_left":[0,0,0,0,0,0,0,0,0],"id":31,"left_children":[1,3,-1,5,7,-1,-1,-1,-1],"loss_changes":[1.0003799E0,1.9243413E0,0E0,1.7693372E0,5.6047523E-1,0E0,0E0,0E0,0E0],"parents":[2147483647,0,0,1,1,3,3,4,4],"right_children":[2,4,-1,6,8,-1,-1,-1,-1],"split_conditions":[1.3112233E0,5.574948E-1,-2.6817663E-2,1.2516071E-1,1.6920364E-1,1.8463342E-3,-4.7968097E-2,3.9202E-2,4.613533E-3],"split_indices":[0,1,0,1,0,0,0,0,0],"split_type":[0,0,0,0,0,0,0,0,0],"sum_hessian":[1.7690931E1,1.5760764E1,1.9301677E0,1.0789046E1,4.971719E0,9.6193285E0,1.1697173E0,2.8616662E0,2.1100526E0],"tree_param":{"num_deleted":"0","num_feature":"3","num_nodes":"9","size_leaf_vector":"1"}},{"base_weights":[1.2092019E-3,3.3670756E-1,-1.4184383E-1,-3.2666083E-2,4.5167185E-2,-4.0326826E-2,-1.9507599E-3,-2.37439E-2,1.2675352E-2,4.275329E-2,-7.987053E-3],"categories":[],"categories_nodes":[],"categories_segments":[],"categories_sizes":[],"default_left":[0,0,0,0,0,0,0,0,0,0,0],"id":32,"left_children":[1,3,5,7,-1,-1,9,-1,-1,-1,-1],"loss_changes":[9.41688E-1,1.2568886E0,1.2780619E0,6.9177175E-1,0E0,0E0,1.809547E0,0E0,0E0,0E0,0E0],"parents":[2147483647,0,0,1,1,2,2,3,3,6,6],"right_children":[2,4,6,8,-1,-1,10,-1,-1,-1,-1],"split_conditions":[-6.110627E-1,-1.1115795E0,-3.301971E-1,-8.7204957E-1,4.5167185E-2,-4.0326826E-2,-1.6095759E-1,-2.37439E-2,1.2675352E-2,4.275329E-2,-7.987053E-3],"split_indices":[2,2,2,0,0,0,2,0,0,0,0],"split_type":[0,0,0,0,0,0,0,0,0,0,0],"sum_hessian":[1.7625807E1,4.8642015E0,1.2761605E1,3.5151367E0,1.349065E0,1.3903015E0,1.13713045E1,1.1219792E0,2.3931575E0,1.0809996E0,1.0290304E1],"tree_param":{"num_deleted":"0","num_feature":"3","num_nodes":"11","size_leaf_vector":"1"}},{"base_weights":[2.725041E-3,4.4275764E-1,-1.075624E-1,4.1488835E-4,4.180422E-2,-4.1967776E-2,1.2031344E-1,2.1778887E-2,-1.5262127E-2],"categories":[],"categories_nodes":[],"categories_segments":[],"categories_sizes":[],"default_left":[0,0,0,0,0,0,0,0,0],"id":33,"left_children":[1,3,5,-1,-1,-1,7,-1,-1],"loss_changes":[9.491609E-1,6.626521E-1,2.7121649E0,0E0,0E0,0E0,1.8522478E0,0E0,0E0],"parents":[2147483647,0,0,1,1,2,2,6,6],"right_children":[2,4,6,-1,-1,-1,8,-1,-1],"split_conditions":[-1.1743488E0,-1.4430593E0,-5.025726E-1,4.1488835E-4,4.180422E-2,-4.1967776E-2,8.745687E-1,2.1778887E-2,-1.5262127E-2],"split_indices":[0,0,0,0,0,0,0,0,0],"split_type":[0,0,0,0,0,0,0,0,0],"sum_hessian":[1.757687E1,2.9183707E0,1.46585E1,1.8718566E0,1.046514E0,2.8435204E0,1.181498E1,6.7734556E0,5.0415235E0],"tree_param":{"num_deleted":"0","num_feature":"3","num_nodes":"9","size_leaf_vector":"1"}},{"base_weights":[2.9730368E-3,9.372213E-2,-2.56725E-2,-1.4025399E-1,5.4193276E-1,-2.1364313E-2,1.5379185E-2,1.0386577E-2,4.588832E-2],"categories":[],"categories_nodes":[],"categories_segments":[],"categories_sizes":[],"default_left":[0,0,0,0,0,0,0,0,0],"id":34,"left_children":[1,3,-1,5,7,-1,-1,-1,-1],"loss_changes":[9.150289E-1,1.8146467E0,0E0,1.6337283E0,5.4938745E-1,0E0,0E0,0E0,0E0],"parents":[2147483647,0,0,1,1,3,3,4,4],"right_children":[2,4,-1,6,8,-1,-1,-1,-1],"split_conditions":[1.3112233E0,5.574948E-1,-2.56725E-2,3.371477E-1,9.048913E-1,-2.1364313E-2,1.5379185E-2,1.0386577E-2,4.588832E-2],"split_indices":[0,1,0,0,2,0,0,0,0],"split_type":[0,0,0,0,0,0,0,0,0],"sum_hessian":[1.7498001E1,1.55788965E1,1.9191047E0,1.0687079E1,4.8918176E0,6.5407877E0,4.1462917E0,3.4112053E0,1.4806122E0],"tree_param":{"num_deleted":"0","num_feature":"3","num_nodes":"9","size_leaf_vector":"1"}},{"base_weights":[4.19159E-3,4.4215488E-1,-1.0591769E-1,7.5577287E-4,4.1281138E-2,-4.5022283E-2,8.865892E-2,2.7464882E-2,-1.0290814E-2],"categories":[],"categories_nodes":[],"categories_segments":[],"categories_sizes":[],"default_left":[0,0,0,0,0,0,0,0,0],"id":35,"left_children":[1,3,5,-1,-1,-1,7,-1,-1],"loss_changes":[9.3590724E-1,6.257071E-1,2.4821465E0,0E0,0E0,0E0,1.9297335E0,0E0,0E0],"parents":[2147483647,0,0,1,1,2,2,6,6],"right_children":[2,4,6,-1,-1,-1,8,-1,-1],"split_conditions":[-1.1743488E0,-1.4430593E0,-8.7204957E-1,7.5577287E-4,4.1281138E-2,-4.5022283E-2,-1.6095759E-1,2.7464882E-2,-1.0290814E-2],"split_indices":[0,0,0,0,0,0,2,0,0],"split_type":[0,0,0,0,0,0,0,0,0],"sum_hessian":[1.743643E1,2.897184E0,1.4539247E1,1.862488E0,1.0346959E0,2.1465154E0,1.2392731E1,4.495387E0,7.8973436E0],"tree_param":{"num_deleted":"0","num_feature":"3","num_nodes":"9","size_leaf_vector":"1"}},{"base_weights":[4.78846E-3,4.3222103E-1,-1.0284969E-1,7.31174E-4,4.0475868E-2,-3.9529122E-2,1.09450154E-1,2.0619158E-2,-1.4764507E-2],"categories":[],"categories_nodes":[],"categories_segments":[],"categories_sizes":[],"default_left":[0,0,0,0,0,0,0,0,0],"id":36,"left_children":[1,3,5,-1,-1,-1,7,-1,-1],"loss_changes":[8.890732E-1,6.003131E-1,2.3456492E0,0E0,0E0,0E0,1.6790925E0,0E0,0E0],"parents":[2147483647,0,0,1,1,2,2,6,6],"right_children":[2,4,6,-1,-1,-1,8,-1,-1],"split_conditions":[-1.1743488E0,-1.4430593E0,-5.025726E-1,7.31174E-4,4.0475868E-2,-3.9529122E-2,8.745687E-1,2.0619158E-2,-1.4764507E-2],"split_indices":[0,0,0,0,0,0,0,0,0],"split_type":[0,0,0,0,0,0,0,0,0],"sum_hessian":[1.7358078E1,2.8852422E0,1.44728365E1,1.8625268E0,1.0227154E0,2.7713423E0,1.1701494E1,6.6816473E0,5.0198464E0],"tree_param":{"num_deleted":"0","num_feature":"3","num_nodes":"9","size_leaf_vector":"1"}},{"base_weights":[4.9862936E-3,4.2260614E-1,-1.0032883E-1,7.073784E-4,3.969882E-2,-4.2761084E-2,8.328783E-2,2.6342943E-2,-9.878318E-3],"categories":[],"categories_nodes":[],"categories_segments":[],"categories_sizes":[],"default_left":[0,0,0,0,0,0,0,0,0],"id":37,"left_children":[1,3,5,-1,-1,-1,7,-1,-1],"loss_changes":[8.4632665E-1,5.7626694E-1,2.2066188E0,0E0,0E0,0E0,1.7613391E0,0E0,0E0],"parents":[2147483647,0,0,1,1,2,2,6,6],"right_children":[2,4,6,-1,-1,-1,8,-1,-1],"split_conditions":[-1.1743488E0,-1.4430593E0,-8.7204957E-1,7.073784E-4,3.969882E-2,-4.2761084E-2,-1.6095759E-1,2.6342943E-2,-9.878318E-3],"split_indices":[0,0,0,0,0,0,2,0,0],"split_type":[0,0,0,0,0,0,0,0,0],"sum_hessian":[1.7278679E1,2.8730443E0,1.4405635E1,1.862564E0,1.0104802E0,2.1028123E0,1.2302823E1,4.430125E0,7.872698E0],"tree_param":{"num_deleted":"0","num_feature":"3","num_nodes":"9","size_leaf_vector":"1"}},{"base_weights":[5.5475887E-3,9.446188E-2,-2.476369E-2,-1.353364E-1,5.322422E-1,1.8297322E-3,-4.5509942E-2,9.601525E-3,4.569739E-2],"categories":[],"categories_nodes":[],"categories_segments":[],"categories_sizes":[],"default_left":[0,0,0,0,0,0,0,0,0],"id":38,"left_children":[1,3,-1,5,7,-1,-1,-1,-1],"loss_changes":[8.572271E-1,1.7113967E0,0E0,1.5631803E0,5.7926214E-1,0E0,0E0,0E0,0E0],"parents":[2147483647,0,0,1,1,3,3,4,4],"right_children":[2,4,-1,6,8,-1,-1,-1,-1],"split_conditions":[1.3112233E0,5.574948E-1,-2.476369E-2,1.2516071E-1,9.048913E-1,1.8297322E-3,-4.5509942E-2,9.601525E-3,4.569739E-2],"split_indices":[0,1,0,1,2,0,0,0,0],"split_type":[0,0,0,0,0,0,0,0,0],"sum_hessian":[1.7199848E1,1.5295686E1,1.9041631E0,1.0483551E1,4.812135E0,9.359568E0,1.1239834E0,3.3391013E0,1.4730338E0],"tree_param":{"num_deleted":"0","num_feature":"3","num_nodes":"9","size_leaf_vector":"1"}},{"base_weights":[4.5720655E-3,3.2361528E-1,-1.2945457E-1,-3.8184114E-2,4.3713015E-2,-3.8355216E-2,4.5867176E-3,2.0681424E-2,-1.5503448E-2,4.1165736E-2,-7.321402E-3],"categories":[],"categories_nodes":[],"categories_segments":[],"categories_sizes":[],"default_left":[0,0,0,0,0,0,0,0,0,0,0],"id":39,"left_children":[1,3,5,7,-1,-1,9,-1,-1,-1,-1],"loss_changes":[8.180605E-1,1.1600509E0,1.1570641E0,6.65196E-1,0E0,0E0,1.6222945E0,0E0,0E0,0E0,0E0],"parents":[2147483647,0,0,1,1,2,2,3,3,6,6],"right_children":[2,4,6,8,-1,-1,10,-1,-1,-1,-1],"split_conditions":[-6.110627E-1,-1.1115795E0,-3.301971E-1,-1.0507879E0,4.3713015E-2,-3.8355216E-2,-1.6095759E-1,2.0681424E-2,-1.5503448E-2,4.1165736E-2,-7.321402E-3],"split_indices":[2,2,2,1,0,0,2,0,0,0,0],"split_type":[0,0,0,0,0,0,0,0,0,0,0],"sum_hessian":[1.7151587E1,4.65531E0,1.2496277E1,3.3710375E0,1.2842729E0,1.3502215E0,1.1146055E1,1.0705999E0,2.3004375E0,1.0424608E0,1.0103594E1],"tree_param":{"num_deleted":"0","num_feature":"3","num_nodes":"11","size_leaf_vector":"1"}},{"base_weights":[6.8442095E-3,4.1610354E-1,-9.7027525E-2,6.569997E-4,3.9152503E-2,-3.7291896E-2,1.01685934E-1,1.9494338E-2,-1.4003538E-2],"categories":[],"categories_nodes":[],"categories_segments":[],"categories_sizes":[],"default_left":[0,0,0,0,0,0,0,0,0],"id":40,"left_children":[1,3,5,-1,-1,-1,7,-1,-1],"loss_changes":[8.102352E-1,5.5973935E-1,2.042615E0,0E0,0E0,0E0,1.4908816E0,0E0,0E0],"parents":[2147483647,0,0,1,1,2,2,6,6],"right_children":[2,4,6,-1,-1,-1,8,-1,-1],"split_conditions":[-1.1743488E0,-1.4430593E0,-5.025726E-1,6.569997E-4,3.9152503E-2,-3.7291896E-2,8.745687E-1,1.9494338E-2,-1.4003538E-2],"split_indices":[0,0,0,0,0,0,0,0,0],"split_type":[0,0,0,0,0,0,0,0,0],"sum_hessian":[1.710993E1,2.8550334E0,1.4254897E1,1.8544129E0,1.0006205E0,2.6966975E0,1.15582E1,6.5739846E0,4.9842153E0],"tree_param":{"num_deleted":"0","num_feature":"3","num_nodes":"9","size_leaf_vector":"1"}},{"base_weights":[6.9785784E-3,2.2012581E-1,-1.8677165E-1,-1.7963767E-1,5.2875435E-1,-5.0780196E-2,1.1808535E-1,2.0354247E-2,-3.0249203E-2,4.2626377E-2,3.748418E-3,-1.4981012E-2,2.3279872E-2],"categories":[],"categories_nodes":[],"categories_segments":[],"categories_sizes":[],"default_left":[0,0,0,0,0,0,0,0,0,0,0,0,0],"id":41,"left_children":[1,3,5,7,9,-1,11,-1,-1,-1,-1,-1,-1],"loss_changes":[7.857502E-1,1.210917E0,2.6432247E0,1.4159706E0,7.2327435E-1,0E0,1.3293269E0,0E0,0E0,0E0,0E0,0E0,0E0],"parents":[2147483647,0,0,1,1,2,2,3,3,4,4,6,6],"right_children":[2,4,6,8,10,-1,12,-1,-1,-1,-1,-1,-1],"split_conditions":[1.9192483E-1,-4.0180618E-1,4.187778E-1,-1.1743488E0,4.3791416E-1,-5.0780196E-2,-3.7634683E-1,2.0354247E-2,-3.0249203E-2,4.2626377E-2,3.748418E-3,-1.4981012E-2,2.3279872E-2],"split_indices":[2,0,2,0,0,0,1,0,0,0,0,0,0],"split_type":[0,0,0,0,0,0,0,0,0,0,0,0,0],"sum_hessian":[1.703112E1,8.044798E0,8.986322E0,3.6870053E0,4.357793E0,1.7895525E0,7.1967697E0,1.5675964E0,2.1194088E0,2.0304098E0,2.3273828E0,3.3308904E0,3.8658795E0],"tree_param":{"num_deleted":"0","num_feature":"3","num_nodes":"13","size_leaf_vector":"1"}},{"base_weights":[6.3576936E-3,9.2859164E-2,-2.3772698E-2,-1.3179919E-1,5.211961E-1,1.7320191E-3,-4.395104E-2,9.335475E-3,4.4634733E-2],"categories":[],"categories_nodes":[],"categories_segments":[],"categories_sizes":[],"default_left":[0,0,0,0,0,0,0,0,0],"id":42,"left_children":[1,3,-1,5,7,-1,-1,-1,-1],"loss_changes":[7.9095787E-1,1.611059E0,0E0,1.4372722E0,5.4362226E-1,0E0,0E0,0E0,0E0],"parents":[2147483647,0,0,1,1,3,3,4,4],"right_children":[2,4,-1,6,8,-1,-1,-1,-1],"split_conditions":[1.3112233E0,5.574948E-1,-2.3772698E-2,1.2516071E-1,9.048913E-1,1.7320191E-3,-4.395104E-2,9.335475E-3,4.4634733E-2],"split_indices":[0,1,0,1,2,0,0,0,0],"split_type":[0,0,0,0,0,0,0,0,0],"sum_hessian":[1.691876E1,1.5027998E1,1.8907626E0,1.0311842E1,4.7161555E0,9.213276E0,1.0985664E0,3.2723818E0,1.4437737E0],"tree_param":{"num_deleted":"0","num_feature":"3","num_nodes":"9","size_leaf_vector":"1"}},{"base_weights":[5.394867E-3,2.1739571E-1,-1.8699852E-1,-1.728421E-1,5.195556E-1,-4.9599957E-2,1.08569175E-1,1.9890564E-2,-2.9408082E-2,4.184612E-2,3.983896E-3,-1.4485127E-2,2.2179088E-2],"categories":[],"categories_nodes":[],"categories_segments":[],"categories_sizes":[],"default_left":[0,0,0,0,0,0,0,0,0,0,0,0,0],"id":43,"left_children":[1,3,5,7,9,-1,11,-1,-1,-1,-1,-1,-1],"loss_changes":[7.69518E-1,1.1467956E0,2.4645848E0,1.338952E0,6.7346406E-1,0E0,1.2154999E0,0E0,0E0,0E0,0E0,0E0,0E0],"parents":[2147483647,0,0,1,1,2,2,3,3,4,4,6,6],"right_children":[2,4,6,8,10,-1,12,-1,-1,-1,-1,-1,-1],"split_conditions":[1.9192483E-1,-4.0180618E-1,4.187778E-1,-1.1743488E0,4.3791416E-1,-4.9599957E-2,-3.7634683E-1,1.9890564E-2,-2.9408082E-2,4.184612E-2,3.983896E-3,-1.4485127E-2,2.2179088E-2],"split_indices":[2,0,2,0,0,0,1,0,0,0,0,0,0],"split_type":[0,0,0,0,0,0,0,0,0,0,0,0,0],"sum_hessian":[1.6869797E1,7.964097E0,8.905699E0,3.6622717E0,4.301825E0,1.7589145E0,7.146785E0,1.5604093E0,2.1018624E0,1.9745703E0,2.327255E0,3.3269126E0,3.819872E0],"tree_param":{"num_deleted":"0","num_feature":"3","num_nodes":"13","size_leaf_vector":"1"}},{"base_weights":[4.8612175E-3,9.011672E-2,-2.3307329E-2,-1.2738845E-1,5.0661135E-1,-1.9927269E-2,1.4527223E-2,9.138918E-3,4.329201E-2],"categories":[],"categories_nodes":[],"categories_segments":[],"categories_sizes":[],"default_left":[0,0,0,0,0,0,0,0,0],"id":44,"left_children":[1,3,-1,5,7,-1,-1,-1,-1],"loss_changes":[7.550733E-1,1.50254E0,0E0,1.3881084E0,4.9862754E-1,0E0,0E0,0E0,0E0],"parents":[2147483647,0,0,1,1,3,3,4,4],"right_children":[2,4,-1,6,8,-1,-1,-1,-1],"split_conditions":[1.3112233E0,5.574948E-1,-2.3307329E-2,3.371477E-1,9.048913E-1,-1.9927269E-2,1.4527223E-2,9.138918E-3,4.329201E-2],"split_indices":[0,1,0,0,2,0,0,0,0],"split_type":[0,0,0,0,0,0,0,0,0],"sum_hessian":[1.6757385E1,1.4873803E1,1.8835832E0,1.02270775E1,4.646725E0,6.230856E0,3.9962213E0,3.2372541E0,1.409471E0],"tree_param":{"num_deleted":"0","num_feature":"3","num_nodes":"9","size_leaf_vector":"1"}},{"base_weights":[5.9958682E-3,4.093265E-1,-9.743743E-2,6.3385754E-3,2.3988891E-2,-3.9682806E-2,7.067121E-2,2.1874536E-2,-1.1444342E-2],"categories":[],"categories_nodes":[],"categories_segments":[],"categories_sizes":[],"default_left":[0,0,0,0,0,0,0,0,0],"id":45,"left_children":[1,3,5,-1,-1,-1,7,-1,-1],"loss_changes":[7.781481E-1,1.4906704E-2,1.7990973E0,0E0,0E0,0E0,1.5191845E0,0E0,0E0],"parents":[2147483647,0,0,1,1,2,2,6,6],"right_children":[2,4,6,-1,-1,-1,8,-1,-1],"split_conditions":[-1.1743488E0,-1.5438259E0,-8.7204957E-1,6.3385754E-3,2.3988891E-2,-3.9682806E-2,1.9192483E-1,2.1874536E-2,-1.1444342E-2],"split_indices":[0,0,0,0,0,0,2,0,0],"split_type":[0,0,0,0,0,0,0,0,0],"sum_hessian":[1.6696623E1,2.8042517E0,1.3892372E1,1.1183541E0,1.6858976E0,1.9782786E0,1.1914093E1,5.148778E0,6.7653155E0],"tree_param":{"num_deleted":"0","num_feature":"3","num_nodes":"9","size_leaf_vector":"1"}},{"base_weights":[5.772724E-3,3.9739573E-1,-9.4913125E-2,6.172502E-3,2.3278955E-2,-3.8689844E-2,6.815194E-2,2.1071104E-2,-1.0949048E-2],"categories":[],"categories_nodes":[],"categories_segments":[],"categories_sizes":[],"default_left":[0,0,0,0,0,0,0,0,0],"id":46,"left_children":[1,3,5,-1,-1,-1,7,-1,-1],"loss_changes":[7.3299384E-1,1.3484061E-2,1.6948664E0,0E0,0E0,0E0,1.39876E0,0E0,0E0],"parents":[2147483647,0,0,1,1,2,2,6,6],"right_children":[2,4,6,-1,-1,-1,8,-1,-1],"split_conditions":[-1.1743488E0,-1.5438259E0,-8.7204957E-1,6.172502E-3,2.3278955E-2,-3.8689844E-2,1.9192483E-1,2.1071104E-2,-1.0949048E-2],"split_indices":[0,0,0,0,0,0,2,0,0],"split_type":[0,0,0,0,0,0,0,0,0],"sum_hessian":[1.6632767E1,2.7990036E0,1.3833762E1,1.1179373E0,1.6810662E0,1.9538854E0,1.1879877E1,5.1168003E0,6.763077E0],"tree_param":{"num_deleted":"0","num_feature":"3","num_nodes":"9","size_leaf_vector":"1"}},{"base_weights":[5.548805E-3,8.948332E-2,-2.27693E-2,-1.23789676E-1,4.9661222E-1,1.984275E-3,-4.2924915E-2,8.539281E-3,4.2968605E-2],"categories":[],"categories_nodes":[],"categories_segments":[],"categories_sizes":[],"default_left":[0,0,0,0,0,0,0,0,0],"id":47,"left_children":[1,3,-1,5,7,-1,-1,-1,-1],"loss_changes":[7.2047436E-1,1.4245749E0,0E0,1.3675414E0,5.146799E-1,0E0,0E0,0E0,0E0],"parents":[2147483647,0,0,1,1,3,3,4,4],"right_children":[2,4,-1,6,8,-1,-1,-1,-1],"split_conditions":[1.3112233E0,5.574948E-1,-2.27693E-2,1.2516071E-1,9.048913E-1,1.984275E-3,-4.2924915E-2,8.539281E-3,4.2968605E-2],"split_indices":[0,1,0,1,2,0,0,0,0],"split_type":[0,0,0,0,0,0,0,0,0],"sum_hessian":[1.6569244E1,1.4698557E1,1.8706871E0,1.0102398E1,4.59616E0,9.037506E0,1.0648913E0,3.196182E0,1.3999777E0],"tree_param":{"num_deleted":"0","num_feature":"3","num_nodes":"9","size_leaf_vector":"1"}},{"base_weights":[4.600217E-3,3.854724E-1,-9.353807E-2,5.779666E-3,2.273146E-2,-3.780301E-2,6.468516E-2,2.3143707E-2,-8.956036E-3],"categories":[],"categories_nodes":[],"categories_segments":[],"categories_sizes":[],"default_left":[0,0,0,0,0,0,0,0,0],"id":48,"left_children":[1,3,5,-1,-1,-1,7,-1,-1],"loss_changes":[6.909341E-1,1.808703E-2,1.5935801E0,0E0,0E0,0E0,1.3270996E0,0E0,0E0],"parents":[2147483647,0,0,1,1,2,2,6,6],"right_children":[2,4,6,-1,-1,-1,8,-1,-1],"split_conditions":[-1.1743488E0,-1.5438259E0,-8.7204957E-1,5.779666E-3,2.273146E-2,-3.780301E-2,-1.6095759E-1,2.3143707E-2,-8.956036E-3],"split_indices":[0,0,0,0,0,0,2,0,0],"split_type":[0,0,0,0,0,0,0,0,0],"sum_hessian":[1.6520338E1,2.7847898E0,1.3735548E1,1.1129717E0,1.6718183E0,1.9195305E0,1.1816017E1,4.146055E0,7.669962E0],"tree_param":{"num_deleted":"0","num_feature":"3","num_nodes":"9","size_leaf_vector":"1"}},{"base_weights":[4.6676113E-3,8.68132E-2,-2.223011E-2,-1.2180679E-1,4.8571008E-1,1.8917592E-3,-4.2090766E-2,8.140928E-3,4.2358425E-2],"categories":[],"categories_nodes":[],"categories_segments":[],"categories_sizes":[],"default_left":[0,0,0,0,0,0,0,0,0],"id":49,"left_children":[1,3,-1,5,7,-1,-1,-1,-1],"loss_changes":[6.8270046E-1,1.3566594E0,0E0,1.3004774E0,5.1035404E-1,0E0,0E0,0E0,0E0],"parents":[2147483647,0,0,1,1,3,3,4,4],"right_children":[2,4,-1,6,8,-1,-1,-1,-1],"split_conditions":[1.3112233E0,5.574948E-1,-2.223011E-2,1.2516071E-1,9.048913E-1,1.8917592E-3,-4.2090766E-2,8.140928E-3,4.2358425E-2],"split_indices":[0,1,0,1,2,0,0,0,0],"split_type":[0,0,0,0,0,0,0,0,0],"sum_hessian":[1.6452753E1,1.4591564E1,1.8611887E0,1.0036955E1,4.554609E0,8.990919E0,1.046036E0,3.171738E0,1.3828709E0],"tree_param":{"num_deleted":"0","num_feature":"3","num_nodes":"9","size_leaf_vector":"1"}},{"base_weights":[3.7714206E-3,-1.9134621E-1,1.9441816E-1,1.379616E-1,-4.424992E-2,-1.2643999E-1,4.122541E-2,2.853767E-2,-3.5822134E-2,1.5399306E-2,-3.240096E-2],"categories":[],"categories_nodes":[],"categories_segments":[],"categories_sizes":[],"default_left":[0,0,0,0,0,0,0,0,0,0,0],"id":50,"left_children":[1,3,5,7,-1,9,-1,-1,-1,-1,-1],"loss_changes":[6.8459755E-1,2.2019143E0,1.9841802E0,3.0118277E0,0E0,1.7921126E0,0E0,0E0,0E0,0E0,0E0],"parents":[2147483647,0,0,1,1,2,2,3,3,5,5],"right_children":[2,4,6,8,-1,10,-1,-1,-1,-1,-1],"split_conditions":[-1.3423973E-1,-5.319871E-1,9.5170224E-1,7.7526104E-1,-4.424992E-2,1.8832397E-1,4.122541E-2,2.853767E-2,-3.5822134E-2,1.5399306E-2,-3.240096E-2],"split_indices":[1,1,2,2,0,2,0,0,0,0,0],"split_type":[0,0,0,0,0,0,0,0,0,0,0],"sum_hessian":[1.6403812E1,8.105036E0,8.298778E0,6.039108E0,2.0659273E0,6.028327E0,2.2704499E0,4.228952E0,1.810156E0,3.5123687E0,2.5159585E0],"tree_param":{"num_deleted":"0","num_feature":"3","num_nodes":"11","size_leaf_vector":"1"}},{"base_weights":[2.0288187E-3,-1.8838741E-1,1.8843259E-1,1.3054936E-1,-4.2975873E-2,-1.2300377E-1,4.013896E-2,2.7457273E-2,-3.485876E-2,1.484592E-2,-3.1354226E-2],"categories":[],"categories_nodes":[],"categories_segments":[],"categories_sizes":[],"default_left":[0,0,0,0,0,0,0,0,0,0,0],"id":51,"left_children":[1,3,5,7,-1,9,-1,-1,-1,-1,-1],"loss_changes":[6.497913E-1,2.0517673E0,1.8676823E0,2.8118563E0,0E0,1.6684254E0,0E0,0E0,0E0,0E0,0E0],"parents":[2147483647,0,0,1,1,2,2,3,3,5,5],"right_children":[2,4,6,8,-1,10,-1,-1,-1,-1,-1],"split_conditions":[-1.3423973E-1,-5.319871E-1,9.5170224E-1,7.7526104E-1,-4.2975873E-2,1.8832397E-1,4.013896E-2,2.7457273E-2,-3.485876E-2,1.484592E-2,-3.1354226E-2],"split_indices":[1,1,2,2,0,2,0,0,0,0,0],"split_type":[0,0,0,0,0,0,0,0,0,0,0],"sum_hessian":[1.6306803E1,8.061317E0,8.245484E0,6.0104766E0,2.0508413E0,6.002409E0,2.2430754E0,4.215286E0,1.7951906E0,3.4987564E0,2.5036528E0],"tree_param":{"num_deleted":"0","num_feature":"3","num_nodes":"11","size_leaf_vector":"1"}},{"base_weights":[3.862614E-4,1.2753315E-1,-2.7193394E-1,2.5760233E-1,-3.2424524E-2,1.4478616E-1,-3.8649734E-2,-4.653904E-3,3.8712706E-2,-2.1640884E-2,3.0980637E-2],"categories":[],"categories_nodes":[],"categories_segments":[],"categories_sizes":[],"default_left":[0,0,0,0,0,0,0,0,0,0,0],"id":52,"left_children":[1,3,5,7,-1,9,-1,-1,-1,-1,-1],"loss_changes":[6.3049346E-1,1.4198213E0,1.322206E0,2.127634E0,0E0,1.3670752E0,0E0,0E0,0E0,0E0,0E0],"parents":[2147483647,0,0,1,1,2,2,3,3,5,5],"right_children":[2,4,6,8,-1,10,-1,-1,-1,-1,-1],"split_conditions":[8.745687E-1,1.4270133E0,9.3794876E-1,-6.591804E-2,-3.2424524E-2,-1.3423973E-1,-3.8649734E-2,-4.653904E-3,3.8712706E-2,-2.1640884E-2,3.0980637E-2],"split_indices":[0,2,1,0,0,1,0,0,0,0,0],"split_type":[0,0,0,0,0,0,0,0,0,0,0],"sum_hessian":[1.6207758E1,1.141142E1,4.796337E0,1.0345467E1,1.0659534E0,3.0067425E0,1.7895948E0,6.6509438E0,3.6945229E0,1.3964726E0,1.61027E0],"tree_param":{"num_deleted":"0","num_feature":"3","num_nodes":"11","size_leaf_vector":"1"}},{"base_weights":[-1.2045284E-3,3.6338463E-1,-9.631081E-2,5.683715E-3,2.115052E-2,-3.7107117E-2,5.9104346E-2,1.9052362E-2,-9.988406E-3],"categories":[],"categories_nodes":[],"categories_segments":[],"categories_sizes":[],"default_left":[0,0,0,0,0,0,0,0,0],"id":53,"left_children":[1,3,5,-1,-1,-1,7,-1,-1],"loss_changes":[6.2922055E-1,7.823259E-3,1.4874206E0,0E0,0E0,0E0,1.1194531E0,0E0,0E0],"parents":[2147483647,0,0,1,1,2,2,6,6],"right_children":[2,4,6,-1,-1,-1,8,-1,-1],"split_conditions":[-1.1743488E0,-1.5438259E0,-8.7204957E-1,5.683715E-3,2.115052E-2,-3.7107117E-2,1.9192483E-1,1.9052362E-2,-9.988406E-3],"split_indices":[0,0,0,0,0,0,2,0,0],"split_type":[0,0,0,0,0,0,0,0,0],"sum_hessian":[1.6137058E1,2.7549918E0,1.3382066E1,1.091268E0,1.6637238E0,1.8634071E0,1.1518659E1,4.9235764E0,6.5950828E0],"tree_param":{"num_deleted":"0","num_feature":"3","num_nodes":"9","size_leaf_vector":"1"}},{"base_weights":[-1.2269934E-3,-1.874798E-1,1.812711E-1,1.2286651E-1,-4.176943E-2,-1.27563E-1,3.936988E-2,2.6128445E-2,-3.333607E-2,1.3588871E-2,-3.0128017E-2],"categories":[],"categories_nodes":[],"categories_segments":[],"categories_sizes":[],"default_left":[0,0,0,0,0,0,0,0,0,0,0],"id":54,"left_children":[1,3,5,7,-1,9,-1,-1,-1,-1,-1],"loss_changes":[6.144079E-1,1.9007838E0,1.8101292E0,2.5317843E0,0E0,1.4746885E0,0E0,0E0,0E0,0E0,0E0],"parents":[2147483647,0,0,1,1,2,2,3,3,5,5],"right_children":[2,4,6,8,-1,10,-1,-1,-1,-1,-1],"split_conditions":[-1.3423973E-1,-5.319871E-1,9.5170224E-1,7.7526104E-1,-4.176943E-2,1.8832397E-1,3.936988E-2,2.6128445E-2,-3.333607E-2,1.3588871E-2,-3.0128017E-2],"split_indices":[1,1,2,2,0,2,0,0,0,0,0],"split_type":[0,0,0,0,0,0,0,0,0,0,0],"sum_hessian":[1.60759E1,7.9425964E0,8.133304E0,5.918174E0,2.0244224E0,5.911046E0,2.2222574E0,4.153685E0,1.7644887E0,3.4436934E0,2.4673529E0],"tree_param":{"num_deleted":"0","num_feature":"3","num_nodes":"11","size_leaf_vector":"1"}},{"base_weights":[-2.7124889E-3,7.582467E-2,-2.1202795E-2,-1.2285951E-1,4.5756707E-1,1.816953E-3,-4.156327E-2,3.3951946E-2,2.343645E-3],"categories":[],"categories_nodes":[],"categories_segments":[],"categories_sizes":[],"default_left":[0,0,0,0,0,0,0,0,0],"id":55,"left_children":[1,3,-1,5,7,-1,-1,-1,-1],"loss_changes":[5.939E-1,1.205814E0,0E0,1.2433465E0,4.5934105E-1,0E0,0E0,0E0,0E0],"parents":[2147483647,0,0,1,1,3,3,4,4],"right_children":[2,4,-1,6,8,-1,-1,-1,-1],"split_conditions":[1.3112233E0,5.574948E-1,-2.1202795E-2,1.2516071E-1,1.6920364E-1,1.816953E-3,-4.156327E-2,3.3951946E-2,2.343645E-3],"split_indices":[0,1,0,1,0,0,0,0,0],"split_type":[0,0,0,0,0,0,0,0,0],"sum_hessian":[1.5975737E1,1.4156961E1,1.818775E0,9.756954E0,4.4000077E0,8.741253E0,1.0157006E0,2.434033E0,1.9659748E0],"tree_param":{"num_deleted":"0","num_feature":"3","num_nodes":"9","size_leaf_vector":"1"}},{"base_weights":[-4.021701E-3,-1.8557507E-1,1.754851E-1,1.14623435E-1,-4.057013E-2,-1.24981746E-1,3.8323253E-2,2.5078496E-2,-3.2509863E-2,1.30059365E-2,-2.9113958E-2],"categories":[],"categories_nodes":[],"categories_segments":[],"categories_sizes":[],"default_left":[0,0,0,0,0,0,0,0,0,0,0],"id":56,"left_children":[1,3,5,7,-1,9,-1,-1,-1,-1,-1],"loss_changes":[5.838239E-1,1.7642342E0,1.6973625E0,2.3645906E0,0E0,1.355872E0,0E0,0E0,0E0,0E0,0E0],"parents":[2147483647,0,0,1,1,2,2,3,3,5,5],"right_children":[2,4,6,8,-1,10,-1,-1,-1,-1,-1],"split_conditions":[-1.3423973E-1,-5.319871E-1,9.5170224E-1,7.7526104E-1,-4.057013E-2,1.8832397E-1,3.8323253E-2,2.5078496E-2,-3.2509863E-2,1.30059365E-2,-2.9113958E-2],"split_indices":[1,1,2,2,0,2,0,0,0,0,0],"split_type":[0,0,0,0,0,0,0,0,0,0,0],"sum_hessian":[1.5914918E1,7.8955474E0,8.01937E0,5.888015E0,2.0075328E0,5.839143E0,2.1802275E0,4.138446E0,1.7495687E0,3.403859E0,2.435284E0],"tree_param":{"num_deleted":"0","num_feature":"3","num_nodes":"11","size_leaf_vector":"1"}},{"base_weights":[-5.378619E-3,1.1595529E-1,-2.6252142E-1,2.3916303E-1,-3.0634483E-2,1.3735269E-1,-3.7204552E-2,-5.164433E-3,3.7511732E-2,-2.1057306E-2,2.982915E-2],"categories":[],"categories_nodes":[],"categories_segments":[],"categories_sizes":[],"default_left":[0,0,0,0,0,0,0,0,0,0,0],"id":57,"left_children":[1,3,5,7,-1,9,-1,-1,-1,-1,-1],"loss_changes":[5.5504256E-1,1.2343657E0,1.1992034E0,2.0173857E0,0E0,1.2660168E0,0E0,0E0,0E0,0E0,0E0],"parents":[2147483647,0,0,1,1,2,2,3,3,5,5],"right_children":[2,4,6,8,-1,10,-1,-1,-1,-1,-1],"split_conditions":[8.745687E-1,1.4270133E0,9.3794876E-1,-6.591804E-2,-3.0634483E-2,-1.3423973E-1,-3.7204552E-2,-5.164433E-3,3.7511732E-2,-2.1057306E-2,2.982915E-2],"split_indices":[0,2,1,0,0,1,0,0,0,0,0],"split_type":[0,0,0,0,0,0,0,0,0,0,0],"sum_hessian":[1.5814083E1,1.1117369E1,4.6967144E0,1.0084017E1,1.0333521E0,2.9565268E0,1.7401878E0,6.5158596E0,3.5681572E0,1.3714955E0,1.5850313E0],"tree_param":{"num_deleted":"0","num_feature":"3","num_nodes":"11","size_leaf_vector":"1"}},{"base_weights":[-6.6888924E-3,3.420079E-1,-9.864247E-2,5.52869E-3,1.9678578E-2,-3.290766E-2,7.381255E-2,1.328858E-2,-2.0332506E-2],"categories":[],"categories_nodes":[],"categories_segments":[],"categories_sizes":[],"default_left":[0,0,0,0,0,0,0,0,0],"id":58,"left_children":[1,3,5,-1,-1,-1,7,-1,-1],"loss_changes":[5.705807E-1,8.470118E-4,1.4018791E0,0E0,0E0,0E0,1.179775E0,0E0,0E0],"parents":[2147483647,0,0,1,1,2,2,6,6],"right_children":[2,4,6,-1,-1,-1,8,-1,-1],"split_conditions":[-1.1743488E0,-1.5438259E0,-5.025726E-1,5.52869E-3,1.9678578E-2,-3.290766E-2,9.3794876E-1,1.328858E-2,-2.0332506E-2],"split_indices":[0,0,0,0,0,0,1,0,0],"split_type":[0,0,0,0,0,0,0,0,0],"sum_hessian":[1.5742937E1,2.7177217E0,1.3025215E1,1.0681112E0,1.6496105E0,2.405257E0,1.0619959E1,7.907515E0,2.7124436E0],"tree_param":{"num_deleted":"0","num_feature":"3","num_nodes":"9","size_leaf_vector":"1"}},{"base_weights":[-7.2695995E-3,-1.8767345E-1,1.712146E-1,1.03931874E-1,-3.9527085E-2,-1.2325362E-1,3.741636E-2,2.388809E-2,-3.1563126E-2,1.2322625E-2,-2.8134663E-2],"categories":[],"categories_nodes":[],"categories_segments":[],"categories_sizes":[],"default_left":[0,0,0,0,0,0,0,0,0,0,0],"id":59,"left_children":[1,3,5,7,-1,9,-1,-1,-1,-1,-1],"loss_changes":[5.697521E-1,1.6258137E0,1.6074162E0,2.171028E0,0E0,1.2372898E0,0E0,0E0,0E0,0E0,0E0],"parents":[2147483647,0,0,1,1,2,2,3,3,5,5],"right_children":[2,4,6,8,-1,10,-1,-1,-1,-1,-1],"split_conditions":[-1.3423973E-1,-5.319871E-1,9.5170224E-1,7.7526104E-1,-3.9527085E-2,1.8832397E-1,3.741636E-2,2.388809E-2,-3.1563126E-2,1.2322625E-2,-2.8134663E-2],"split_indices":[1,1,2,2,0,2,0,0,0,0,0],"split_type":[0,0,0,0,0,0,0,0,0,0,0],"sum_hessian":[1.5696658E1,7.7807446E0,7.9159136E0,5.8019605E0,1.9787843E0,5.762211E0,2.1537027E0,4.0783606E0,1.7235997E0,3.367911E0,2.3942997E0],"tree_param":{"num_deleted":"0","num_feature":"3","num_nodes":"11","size_leaf_vector":"1"}},{"base_weights":[-8.492965E-3,-1.847413E-1,1.6609327E-1,9.8033674E-2,-3.8456827E-2,-1.1988052E-1,3.64668E-2,2.2995792E-2,-3.0749975E-2,2.7057279E-2,-1.7371124E-2],"categories":[],"categories_nodes":[],"categories_segments":[],"categories_sizes":[],"default_left":[0,0,0,0,0,0,0,0,0,0,0],"id":60,"left_children":[1,3,5,7,-1,9,-1,-1,-1,-1,-1],"loss_changes":[5.413444E-1,1.5183824E0,1.515143E0,2.0301325E0,0E0,1.2014351E0,0E0,0E0,0E0,0E0,0E0],"parents":[2147483647,0,0,1,1,2,2,3,3,5,5],"right_children":[2,4,6,8,-1,10,-1,-1,-1,-1,-1],"split_conditions":[-1.3423973E-1,-5.319871E-1,9.5170224E-1,7.7526104E-1,-3.8456827E-2,3.3268106E-1,3.64668E-2,2.2995792E-2,-3.0749975E-2,2.7057279E-2,-1.7371124E-2],"split_indices":[1,1,2,2,0,1,0,0,0,0,0],"split_type":[0,0,0,0,0,0,0,0,0,0,0],"sum_hessian":[1.5595749E1,7.731986E0,7.863763E0,5.7715282E0,1.9604578E0,5.7377234E0,2.1260397E0,4.063956E0,1.7075726E0,1.1163683E0,4.621355E0],"tree_param":{"num_deleted":"0","num_feature":"3","num_nodes":"11","size_leaf_vector":"1"}},{"base_weights":[-8.100236E-3,1.1184521E-1,-2.6126307E-1,2.2937846E-1,-2.9120693E-2,1.18459575E-1,-3.5781305E-2,-4.950725E-3,3.6234263E-2,-2.0645242E-2,2.7966026E-2],"categories":[],"categories_nodes":[],"categories_segments":[],"categories_sizes":[],"default_left":[0,0,0,0,0,0,0,0,0,0,0],"id":61,"left_children":[1,3,5,7,-1,9,-1,-1,-1,-1,-1],"loss_changes":[5.3073E-1,1.1051441E0,1.0525298E0,1.8447082E0,0E0,1.14772E0,0E0,0E0,0E0,0E0,0E0],"parents":[2147483647,0,0,1,1,2,2,3,3,5,5],"right_children":[2,4,6,8,-1,10,-1,-1,-1,-1,-1],"split_conditions":[8.745687E-1,1.4270133E0,9.3794876E-1,-6.591804E-2,-2.9120693E-2,-1.3423973E-1,-3.5781305E-2,-4.950725E-3,3.6234263E-2,-2.0645242E-2,2.7966026E-2],"split_indices":[0,2,1,0,0,1,0,0,0,0,0],"split_type":[0,0,0,0,0,0,0,0,0,0,0],"sum_hessian":[1.5515625E1,1.0906478E1,4.609147E0,9.900071E0,1.0064067E0,2.9135253E0,1.695622E0,6.4342194E0,3.465852E0,1.3499088E0,1.5636164E0],"tree_param":{"num_deleted":"0","num_feature":"3","num_nodes":"11","size_leaf_vector":"1"}},{"base_weights":[-9.291962E-3,1.6421665E-2,-9.935544E-2,-3.59429E-2,5.1988523E-2,1.3828255E-2,-1.2703222E-2],"categories":[],"categories_nodes":[],"categories_segments":[],"categories_sizes":[],"default_left":[0,0,0,0,0,0,0],"id":62,"left_children":[1,-1,3,-1,5,-1,-1],"loss_changes":[5.3280634E-1,0E0,1.3265264E0,0E0,8.9387095E-1,0E0,0E0],"parents":[2147483647,0,0,2,2,4,4],"right_children":[2,-1,4,-1,6,-1,-1],"split_conditions":[-1.1743488E0,1.6421665E-2,-8.7204957E-1,-3.59429E-2,8.745687E-1,1.3828255E-2,-1.2703222E-2],"split_indices":[0,0,0,0,0,0,0],"split_type":[0,0,0,0,0,0,0],"sum_hessian":[1.5444076E1,2.6942675E0,1.2749807E1,1.7670085E0,1.09828E1,6.3901567E0,4.5926423E0],"tree_param":{"num_deleted":"0","num_feature":"3","num_nodes":"7","size_leaf_vector":"1"}},{"base_weights":[-9.994787E-3,-1.8497948E-1,1.6331768E-1,9.011623E-2,-3.7485145E-2,-1.1720804E-1,3.574517E-2,2.1971157E-2,-2.9830921E-2,1.1865697E-2,-2.7018467E-2],"categories":[],"categories_nodes":[],"categories_segments":[],"categories_sizes":[],"default_left":[0,0,0,0,0,0,0,0,0,0,0],"id":63,"left_children":[1,3,5,7,-1,9,-1,-1,-1,-1,-1],"loss_changes":[5.2726704E-1,1.4074028E0,1.4400955E0,1.8674787E0,0E0,1.1287951E0,0E0,0E0,0E0,0E0,0E0],"parents":[2147483647,0,0,1,1,2,2,3,3,5,5],"right_children":[2,4,6,8,-1,10,-1,-1,-1,-1,-1],"split_conditions":[-1.3423973E-1,-5.319871E-1,9.5170224E-1,7.7526104E-1,-3.7485145E-2,1.8832397E-1,3.574517E-2,2.1971157E-2,-2.9830921E-2,1.1865697E-2,-2.7018467E-2],"split_indices":[1,1,2,2,0,2,0,0,0,0,0],"split_type":[0,0,0,0,0,0,0,0,0,0,0],"sum_hessian":[1.5389889E1,7.6245027E0,7.765386E0,5.6921096E0,1.9323933E0,5.6694975E0,2.0958886E0,4.011693E0,1.6804167E0,3.323923E0,2.3455746E0],"tree_param":{"num_deleted":"0","num_feature":"3","num_nodes":"11","size_leaf_vector":"1"}},{"base_weights":[-1.107708E-2,-1.8208039E-1,1.5846765E-1,8.48062E-2,-3.6494233E-2,-1.1404324E-1,3.485052E-2,2.1153145E-2,-2.9074077E-2,2.6265282E-2,-1.6695011E-2],"categories":[],"categories_nodes":[],"categories_segments":[],"categories_sizes":[],"default_left":[0,0,0,0,0,0,0,0,0,0,0],"id":64,"left_children":[1,3,5,7,-1,9,-1,-1,-1,-1,-1],"loss_changes":[5.011295E-1,1.3156035E0,1.3583866E0,1.7474415E0,0E0,1.1095554E0,0E0,0E0,0E0,0E0,0E0],"parents":[2147483647,0,0,1,1,2,2,3,3,5,5],"right_children":[2,4,6,8,-1,10,-1,-1,-1,-1,-1],"split_conditions":[-1.3423973E-1,-5.319871E-1,9.5170224E-1,7.7526104E-1,-3.6494233E-2,3.3268106E-1,3.485052E-2,2.1153145E-2,-2.9074077E-2,2.6265282E-2,-1.6695011E-2],"split_indices":[1,1,2,2,0,1,0,0,0,0,0],"split_type":[0,0,0,0,0,0,0,0,0,0,0],"sum_hessian":[1.5289461E1,7.575178E0,7.714283E0,5.661918E0,1.9132599E0,5.645706E0,2.068577E0,3.997525E0,1.6643932E0,1.0891443E0,4.5565615E0],"tree_param":{"num_deleted":"0","num_feature":"3","num_nodes":"11","size_leaf_vector":"1"}},{"base_weights":[-1.0566226E-2,-1.792418E-1,1.5626158E-1,7.972432E-2,-3.5538938E-2,-1.0694488E-1,3.3983853E-2,2.036587E-2,-2.83409E-2,1.1745519E-2,-2.5917782E-2],"categories":[],"categories_nodes":[],"categories_segments":[],"categories_sizes":[],"default_left":[0,0,0,0,0,0,0,0,0,0,0],"id":65,"left_children":[1,3,5,7,-1,9,-1,-1,-1,-1,-1],"loss_changes":[4.8412865E-1,1.2302239E0,1.2689718E0,1.635515E0,0E0,1.0559129E0,0E0,0E0,0E0,0E0,0E0],"parents":[2147483647,0,0,1,1,2,2,3,3,5,5],"right_children":[2,4,6,8,-1,10,-1,-1,-1,-1,-1],"split_conditions":[-1.3423973E-1,-5.319871E-1,9.5170224E-1,7.7526104E-1,-3.5538938E-2,1.8832397E-1,3.3983853E-2,2.036587E-2,-2.83409E-2,1.1745519E-2,-2.5917782E-2],"split_indices":[1,1,2,2,0,2,0,0,0,0,0],"split_type":[0,0,0,0,0,0,0,0,0,0,0],"sum_hessian":[1.5209087E1,7.5256605E0,7.6834264E0,5.63183E0,1.8938302E0,5.641967E0,2.0414596E0,3.9834728E0,1.6483576E0,3.3157823E0,2.3261845E0],"tree_param":{"num_deleted":"0","num_feature":"3","num_nodes":"11","size_leaf_vector":"1"}},{"base_weights":[-1.1576599E-2,6.1447624E-2,-1.9626794E-2,-1.3478282E-1,4.3684566E-1,-1.905561E-2,1.2447402E-2,3.2416154E-2,1.9590447E-3],"categories":[],"categories_nodes":[],"categories_segments":[],"categories_sizes":[],"default_left":[0,0,0,0,0,0,0,0,0],"id":66,"left_children":[1,3,-1,5,7,-1,-1,-1,-1],"loss_changes":[4.7226405E-1,1.1183652E0,0E0,1.0599213E0,4.0963948E-1,0E0,0E0,0E0,0E0],"parents":[2147483647,0,0,1,1,3,3,4,4],"right_children":[2,4,-1,6,8,-1,-1,-1,-1],"split_conditions":[1.3112233E0,5.574948E-1,-1.9626794E-2,3.371477E-1,1.6920364E-1,-1.905561E-2,1.2447402E-2,3.2416154E-2,1.9590447E-3],"split_indices":[0,1,0,0,0,0,0,0,0],"split_type":[0,0,0,0,0,0,0,0,0],"sum_hessian":[1.5109117E1,1.3382579E1,1.7265381E0,9.209494E0,4.1730847E0,5.613091E0,3.5964026E0,2.312811E0,1.860274E0],"tree_param":{"num_deleted":"0","num_feature":"3","num_nodes":"9","size_leaf_vector":"1"}},{"base_weights":[-1.0507716E-2,1.5639098E-2,-9.775629E-2,-3.563637E-2,5.2996945E-2,1.3764093E-2,-1.2451235E-2],"categories":[],"categories_nodes":[],"categories_segments":[],"categories_sizes":[],"default_left":[0,0,0,0,0,0,0],"id":67,"left_children":[1,-1,3,-1,5,-1,-1],"loss_changes":[4.8306048E-1,0E0,1.2795562E0,0E0,8.532361E-1,0E0,0E0],"parents":[2147483647,0,0,2,2,4,4],"right_children":[2,-1,4,-1,6,-1,-1],"split_conditions":[-1.1743488E0,1.5639098E-2,-8.7204957E-1,-3.563637E-2,8.745687E-1,1.3764093E-2,-1.2451235E-2],"split_indices":[0,0,0,0,0,0,0],"split_type":[0,0,0,0,0,0,0],"sum_hessian":[1.5041803E1,2.6473598E0,1.23944435E1,1.7062646E0,1.0688178E1,6.207821E0,4.4803576E0],"tree_param":{"num_deleted":"0","num_feature":"3","num_nodes":"7","size_leaf_vector":"1"}},{"base_weights":[-1.1199288E-2,1.5097047E-2,-9.578327E-2,-3.4810077E-2,5.0570104E-2,1.672276E-2,-8.8463E-3],"categories":[],"categories_nodes":[],"categories_segments":[],"categories_sizes":[],"default_left":[0,0,0,0,0,0,0],"id":68,"left_children":[1,-1,3,-1,5,-1,-1],"loss_changes":[4.5243365E-1,0E0,1.208167E0,0E0,8.125043E-1,0E0,0E0],"parents":[2147483647,0,0,2,2,4,4],"right_children":[2,-1,4,-1,6,-1,-1],"split_conditions":[-1.1743488E0,1.5097047E-2,-8.7204957E-1,-3.4810077E-2,1.9192483E-1,1.672276E-2,-8.8463E-3],"split_indices":[0,0,0,0,2,0,0],"split_type":[0,0,0,0,0,0,0],"sum_hessian":[1.4989669E1,2.6413503E0,1.2348319E1,1.6837409E0,1.06645775E1,4.5351505E0,6.1294274E0],"tree_param":{"num_deleted":"0","num_feature":"3","num_nodes":"7","size_leaf_vector":"1"}},{"base_weights":[-1.142895E-2,-1.7492026E-1,1.5085077E-1,7.884442E-2,-3.4661725E-2,-1.12520196E-1,3.356894E-2,1.9801052E-2,-2.7406437E-2,2.6124334E-2,-1.6579986E-2],"categories":[],"categories_nodes":[],"categories_segments":[],"categories_sizes":[],"default_left":[0,0,0,0,0,0,0,0,0,0,0],"id":69,"left_children":[1,3,5,7,-1,9,-1,-1,-1,-1,-1],"loss_changes":[4.491584E-1,1.1596175E0,1.2454834E0,1.5171355E0,0E0,1.0807484E0,0E0,0E0,0E0,0E0,0E0],"parents":[2147483647,0,0,1,1,2,2,3,3,5,5],"right_children":[2,4,6,8,-1,10,-1,-1,-1,-1,-1],"split_conditions":[-1.3423973E-1,-5.319871E-1,9.5170224E-1,7.7526104E-1,-3.4661725E-2,3.3268106E-1,3.356894E-2,1.9801052E-2,-2.7406437E-2,2.6124334E-2,-1.6579986E-2],"split_indices":[1,1,2,2,0,1,0,0,0,0,0],"split_type":[0,0,0,0,0,0,0,0,0,0,0],"sum_hessian":[1.4934806E1,7.400829E0,7.5339775E0,5.537549E0,1.8632798E0,5.5232296E0,2.0107477E0,3.9218848E0,1.6156642E0,1.0615076E0,4.461722E0],"tree_param":{"num_deleted":"0","num_feature":"3","num_nodes":"11","size_leaf_vector":"1"}},{"base_weights":[-1.0850316E-2,-1.7226219E-1,1.4895223E-1,7.4061394E-2,-3.377119E-2,3.906749E-2,-6.3484706E-2,1.9067282E-2,-2.672382E-2,-1.7496234E-2,2.8602352E-2],"categories":[],"categories_nodes":[],"categories_segments":[],"categories_sizes":[],"default_left":[0,0,0,0,0,0,0,0,0,0,0],"id":70,"left_children":[1,3,5,7,-1,-1,9,-1,-1,-1,-1],"loss_changes":[4.34634E-1,1.085138E0,1.1920316E0,1.4207857E0,0E0,0E0,1.5273076E0,0E0,0E0,0E0,0E0],"parents":[2147483647,0,0,1,1,2,2,3,3,6,6],"right_children":[2,4,6,8,-1,-1,10,-1,-1,-1,-1],"split_conditions":[-1.3423973E-1,-5.319871E-1,1.2516071E-1,7.7526104E-1,-3.377119E-2,3.906749E-2,9.5170224E-1,1.9067282E-2,-2.672382E-2,-1.7496234E-2,2.8602352E-2],"split_indices":[1,1,1,2,0,0,2,0,0,0,0],"split_type":[0,0,0,0,0,0,0,0,0,0,0],"sum_hessian":[1.4855419E1,7.3517065E0,7.503713E0,5.508043E0,1.8436637E0,1.2134365E0,6.2902765E0,3.9080129E0,1.60003E0,4.6457796E0,1.6444967E0],"tree_param":{"num_deleted":"0","num_feature":"3","num_nodes":"11","size_leaf_vector":"1"}},{"base_weights":[-9.793721E-3,1.026962E-1,-2.4445783E-1,-6.842357E-2,2.4399258E-2,1.2011099E-1,-3.4109134E-2,-1.86248E-2,2.755559E-2,-1.9449368E-2,2.6809478E-2],"categories":[],"categories_nodes":[],"categories_segments":[],"categories_sizes":[],"default_left":[0,0,0,0,0,0,0,0,0,0,0],"id":71,"left_children":[1,3,5,7,-1,9,-1,-1,-1,-1,-1],"loss_changes":[4.4136608E-1,7.8259236E-1,9.445585E-1,1.8528459E0,0E0,1.0134019E0,0E0,0E0,0E0,0E0,0E0],"parents":[2147483647,0,0,1,1,2,2,3,3,5,5],"right_children":[2,4,6,8,-1,10,-1,-1,-1,-1,-1],"split_conditions":[8.745687E-1,5.574948E-1,9.3794876E-1,3.371477E-1,2.4399258E-2,-1.3423973E-1,-3.4109134E-2,-1.86248E-2,2.755559E-2,-1.9449368E-2,2.6809478E-2],"split_indices":[0,1,1,0,0,1,0,0,0,0,0],"split_type":[0,0,0,0,0,0,0,0,0,0,0],"sum_hessian":[1.4769053E1,1.0363511E1,4.4055424E0,7.745766E0,2.6177452E0,2.79951E0,1.6060323E0,5.463158E0,2.2826078E0,1.2883021E0,1.5112079E0],"tree_param":{"num_deleted":"0","num_feature":"3","num_nodes":"11","size_leaf_vector":"1"}},{"base_weights":[-8.915714E-3,1.481417E-2,-9.241542E-2,-3.413279E-2,5.1427048E-2,1.3251658E-2,-1.1899939E-2],"categories":[],"categories_nodes":[],"categories_segments":[],"categories_sizes":[],"default_left":[0,0,0,0,0,0,0],"id":72,"left_children":[1,-1,3,-1,5,-1,-1],"loss_changes":[4.2719552E-1,0E0,1.1456894E0,0E0,7.708032E-1,0E0,0E0],"parents":[2147483647,0,0,2,2,4,4],"right_children":[2,-1,4,-1,6,-1,-1],"split_conditions":[-1.1743488E0,1.481417E-2,-8.7204957E-1,-3.413279E-2,8.745687E-1,1.3251658E-2,-1.1899939E-2],"split_indices":[0,0,0,0,0,0,0],"split_type":[0,0,0,0,0,0,0],"sum_hessian":[1.4688815E1,2.608004E0,1.20808115E1,1.6332222E0,1.0447589E1,6.0596447E0,4.387944E0],"tree_param":{"num_deleted":"0","num_feature":"3","num_nodes":"7","size_leaf_vector":"1"}},{"base_weights":[-9.660503E-3,5.9358317E-2,-1.8289005E-2,-1.338448E-1,4.2677167E-1,8.515659E-4,-3.6469337E-2,3.134026E-2,2.3967084E-3],"categories":[],"categories_nodes":[],"categories_segments":[],"categories_sizes":[],"default_left":[0,0,0,0,0,0,0,0,0],"id":73,"left_children":[1,3,-1,5,7,-1,-1,-1,-1],"loss_changes":[4.0610856E-1,1.0481261E0,0E0,9.02931E-1,3.52642E-1,0E0,0E0,0E0,0E0],"parents":[2147483647,0,0,1,1,3,3,4,4],"right_children":[2,4,-1,6,8,-1,-1,-1,-1],"split_conditions":[1.3112233E0,5.574948E-1,-1.8289005E-2,1.0786735E-1,1.6920364E-1,8.515659E-4,-3.6469337E-2,3.134026E-2,2.3967084E-3],"split_indices":[0,1,0,1,0,0,0,0,0],"split_type":[0,0,0,0,0,0,0,0,0],"sum_hessian":[1.4639254E1,1.2960688E1,1.6785657E0,8.910724E0,4.0499644E0,7.8846164E0,1.0261071E0,2.2221022E0,1.827862E0],"tree_param":{"num_deleted":"0","num_feature":"3","num_nodes":"9","size_leaf_vector":"1"}},{"base_weights":[-1.0477371E-2,-1.6532856E-1,1.4428034E-1,7.39056E-2,-3.2771755E-2,3.811278E-2,-6.471293E-2,1.8697588E-2,-2.6119357E-2,-1.734307E-2,2.7981987E-2],"categories":[],"categories_nodes":[],"categories_segments":[],"categories_sizes":[],"default_left":[0,0,0,0,0,0,0,0,0,0,0],"id":74,"left_children":[1,3,5,7,-1,-1,9,-1,-1,-1,-1],"loss_changes":[3.9743134E-1,1.016702E0,1.1252689E0,1.3489901E0,0E0,0E0,1.4531598E0,0E0,0E0,0E0,0E0],"parents":[2147483647,0,0,1,1,2,2,3,3,6,6],"right_children":[2,4,6,8,-1,-1,10,-1,-1,-1,-1],"split_conditions":[-1.3423973E-1,-5.319871E-1,1.2516071E-1,7.7526104E-1,-3.2771755E-2,3.811278E-2,9.5170224E-1,1.8697588E-2,-2.6119357E-2,-1.734307E-2,2.7981987E-2],"split_indices":[1,1,1,2,0,0,2,0,0,0,0],"split_type":[0,0,0,0,0,0,0,0,0,0,0],"sum_hessian":[1.458885E1,7.2580805E0,7.3307695E0,5.44798E0,1.8101003E0,1.1836236E0,6.147146E0,3.8723433E0,1.5756366E0,4.5399594E0,1.6071868E0],"tree_param":{"num_deleted":"0","num_feature":"3","num_nodes":"11","size_leaf_vector":"1"}},{"base_weights":[-9.440996E-3,1.4145772E-2,-8.965838E-2,-6.038882E-1,7.027167E-2,-3.6481686E-2,-1.0236391E-2,1.2485703E-2,-1.8845312E-2],"categories":[],"categories_nodes":[],"categories_segments":[],"categories_sizes":[],"default_left":[0,0,0,0,0,0,0,0,0],"id":75,"left_children":[1,-1,3,5,7,-1,-1,-1,-1],"loss_changes":[3.8895935E-1,0E0,1.1053991E0,9.755254E-3,9.570958E-1,0E0,0E0,0E0,0E0],"parents":[2147483647,0,0,2,2,3,3,4,4],"right_children":[2,-1,4,6,8,-1,-1,-1,-1],"split_conditions":[-1.1743488E0,1.4145772E-2,-5.025726E-1,-4.094156E-1,9.3794876E-1,-3.6481686E-2,-1.0236391E-2,1.2485703E-2,-1.8845312E-2],"split_indices":[0,0,0,2,1,0,0,0,0],"split_type":[0,0,0,0,0,0,0,0,0],"sum_hessian":[1.4503691E1,2.5786839E0,1.1925007E1,2.170418E0,9.754589E0,1.0208908E0,1.1495272E0,7.276337E0,2.4782517E0],"tree_param":{"num_deleted":"0","num_feature":"3","num_nodes":"9","size_leaf_vector":"1"}},{"base_weights":[-1.1522211E-2,-1.6912006E-1,1.4584067E-1,6.4380266E-2,-3.217854E-2,3.721751E-2,-5.593025E-2,1.7906127E-2,-2.5723347E-2,-1.6446657E-2,2.7389143E-2],"categories":[],"categories_nodes":[],"categories_segments":[],"categories_sizes":[],"default_left":[0,0,0,0,0,0,0,0,0,0,0],"id":76,"left_children":[1,3,5,7,-1,-1,9,-1,-1,-1,-1],"loss_changes":[4.0818202E-1,9.4869846E-1,1.0409255E0,1.2720097E0,0E0,0E0,1.3534575E0,0E0,0E0,0E0,0E0],"parents":[2147483647,0,0,1,1,2,2,3,3,6,6],"right_children":[2,4,6,8,-1,-1,10,-1,-1,-1,-1],"split_conditions":[-1.3423973E-1,-5.319871E-1,1.2516071E-1,7.7526104E-1,-3.217854E-2,3.721751E-2,9.5170224E-1,1.7906127E-2,-2.5723347E-2,-1.6446657E-2,2.7389143E-2],"split_indices":[1,1,1,2,0,0,2,0,0,0,0],"split_type":[0,0,0,0,0,0,0,0,0,0,0],"sum_hessian":[1.4464382E1,7.189467E0,7.2749157E0,5.397433E0,1.792034E0,1.1562035E0,6.118712E0,3.8334336E0,1.5639993E0,4.5268097E0,1.5919023E0],"tree_param":{"num_deleted":"0","num_feature":"3","num_nodes":"11","size_leaf_vector":"1"}},{"base_weights":[-1.0461255E-2,-1.6656798E-1,1.4508551E-1,6.019467E-2,-3.137015E-2,3.6572035E-2,-5.1684104E-2,1.7244756E-2,-2.5090009E-2,-1.5772814E-2,2.6723174E-2],"categories":[],"categories_nodes":[],"categories_segments":[],"categories_sizes":[],"default_left":[0,0,0,0,0,0,0,0,0,0,0],"id":77,"left_children":[1,3,5,7,-1,-1,9,-1,-1,-1,-1],"loss_changes":[3.976179E-1,8.8856804E-1,9.883009E-1,1.1921192E0,0E0,0E0,1.2666745E0,0E0,0E0,0E0,0E0],"parents":[2147483647,0,0,1,1,2,2,3,3,6,6],"right_children":[2,4,6,8,-1,-1,10,-1,-1,-1,-1],"split_conditions":[-1.3423973E-1,-5.319871E-1,1.2516071E-1,7.7526104E-1,-3.137015E-2,3.6572035E-2,9.5170224E-1,1.7244756E-2,-2.5090009E-2,-1.5772814E-2,2.6723174E-2],"split_indices":[1,1,1,2,0,0,2,0,0,0,0],"split_type":[0,0,0,0,0,0,0,0,0,0,0],"sum_hessian":[1.4379824E1,7.1416297E0,7.238194E0,5.3690605E0,1.7725694E0,1.1359435E0,6.10225E0,3.8201275E0,1.5489329E0,4.5269103E0,1.5753399E0],"tree_param":{"num_deleted":"0","num_feature":"3","num_nodes":"11","size_leaf_vector":"1"}},{"base_weights":[-9.436111E-3,5.9087407E-2,-1.8044062E-2,-1.394431E-1,4.316495E-1,-1.8315095E-2,1.0803933E-2,3.1357266E-2,2.6750069E-3],"categories":[],"categories_nodes":[],"categories_segments":[],"categories_sizes":[],"default_left":[0,0,0,0,0,0,0,0,0],"id":78,"left_children":[1,3,-1,5,7,-1,-1,-1,-1],"loss_changes":[3.8968572E-1,1.0705189E0,0E0,8.5881495E-1,3.355394E-1,0E0,0E0,0E0,0E0],"parents":[2147483647,0,0,1,1,3,3,4,4],"right_children":[2,4,-1,6,8,-1,-1,-1,-1],"split_conditions":[1.3112233E0,5.574948E-1,-1.8044062E-2,3.371477E-1,1.6920364E-1,-1.8315095E-2,1.0803933E-2,3.1357266E-2,2.6750069E-3],"split_indices":[0,1,0,0,0,0,0,0,0],"split_type":[0,0,0,0,0,0,0,0,0],"sum_hessian":[1.4295999E1,1.2659556E1,1.636442E0,8.666878E0,3.9926784E0,5.2722974E0,3.3945804E0,2.1979318E0,1.7947468E0],"tree_param":{"num_deleted":"0","num_feature":"3","num_nodes":"9","size_leaf_vector":"1"}},{"base_weights":[-8.417459E-3,9.792925E-2,-2.2832255E-1,-6.545054E-2,2.3113532E-2,1.1427423E-1,-3.208859E-2,-1.758611E-2,2.5831154E-2,-1.8878942E-2,2.5759479E-2],"categories":[],"categories_nodes":[],"categories_segments":[],"categories_sizes":[],"default_left":[0,0,0,0,0,0,0,0,0,0,0],"id":79,"left_children":[1,3,5,7,-1,9,-1,-1,-1,-1,-1],"loss_changes":[3.7862474E-1,6.831424E-1,8.1923634E-1,1.5894744E0,0E0,9.2976457E-1,0E0,0E0,0E0,0E0,0E0],"parents":[2147483647,0,0,1,1,2,2,3,3,5,5],"right_children":[2,4,6,8,-1,10,-1,-1,-1,-1,-1],"split_conditions":[8.745687E-1,5.574948E-1,9.3794876E-1,3.371477E-1,2.3113532E-2,-1.3423973E-1,-3.208859E-2,-1.758611E-2,2.5831154E-2,-1.8878942E-2,2.5759479E-2],"split_indices":[0,1,1,0,0,1,0,0,0,0,0],"split_type":[0,0,0,0,0,0,0,0,0,0,0],"sum_hessian":[1.4234008E1,9.968088E0,4.265919E0,7.448399E0,2.519689E0,2.7285588E0,1.5373605E0,5.258125E0,2.190274E0,1.2514529E0,1.477106E0],"tree_param":{"num_deleted":"0","num_feature":"3","num_nodes":"11","size_leaf_vector":"1"}},{"base_weights":[-7.6168342E-3,1.421298E-2,-8.8789016E-2,-3.305728E-2,4.988935E-2,1.6394712E-2,-8.803111E-3],"categories":[],"categories_nodes":[],"categories_segments":[],"categories_sizes":[],"default_left":[0,0,0,0,0,0,0],"id":80,"left_children":[1,-1,3,-1,5,-1,-1],"loss_changes":[3.8436025E-1,0E0,1.0347997E0,0E0,7.543368E-1,0E0,0E0],"parents":[2147483647,0,0,2,2,4,4],"right_children":[2,-1,4,-1,6,-1,-1],"split_conditions":[-1.1743488E0,1.421298E-2,-8.7204957E-1,-3.305728E-2,1.9192483E-1,1.6394712E-2,-8.803111E-3],"split_indices":[0,0,0,0,2,0,0],"split_type":[0,0,0,0,0,0,0],"sum_hessian":[1.4157748E1,2.5362055E0,1.1621543E1,1.5318367E0,1.0089706E1,4.321489E0,5.7682176E0],"tree_param":{"num_deleted":"0","num_feature":"3","num_nodes":"7","size_leaf_vector":"1"}},{"base_weights":[-8.014047E-3,9.656237E-2,-2.233189E-1,-6.1620712E-2,2.247373E-2,1.079567E-1,-3.1182472E-2,-1.6933942E-2,2.5063617E-2,-1.8635383E-2,2.5047705E-2],"categories":[],"categories_nodes":[],"categories_segments":[],"categories_sizes":[],"default_left":[0,0,0,0,0,0,0,0,0,0,0],"id":81,"left_children":[1,3,5,7,-1,9,-1,-1,-1,-1,-1],"loss_changes":[3.6170626E-1,6.342988E-1,7.6233745E-1,1.4770635E0,0E0,8.894315E-1,0E0,0E0,0E0,0E0,0E0],"parents":[2147483647,0,0,1,1,2,2,3,3,5,5],"right_children":[2,4,6,8,-1,10,-1,-1,-1,-1,-1],"split_conditions":[8.745687E-1,5.574948E-1,9.3794876E-1,3.371477E-1,2.247373E-2,-1.3423973E-1,-3.1182472E-2,-1.6933942E-2,2.5063617E-2,-1.8635383E-2,2.5047705E-2],"split_indices":[0,1,1,0,0,1,0,0,0,0,0],"split_type":[0,0,0,0,0,0,0,0,0,0,0],"sum_hessian":[1.4106809E1,9.866182E0,4.2406263E0,7.382552E0,2.48363E0,2.7200782E0,1.5205482E0,5.2143526E0,2.1681998E0,1.2467908E0,1.4732875E0],"tree_param":{"num_deleted":"0","num_feature":"3","num_nodes":"11","size_leaf_vector":"1"}},{"base_weights":[-7.2496235E-3,1.4065678E-2,-8.79801E-2,-2.9028922E-2,6.443394E-2,1.15392795E-2,-1.7517097E-2],"categories":[],"categories_nodes":[],"categories_segments":[],"categories_sizes":[],"default_left":[0,0,0,0,0,0,0],"id":82,"left_children":[1,-1,3,-1,5,-1,-1],"loss_changes":[3.749346E-1,0E0,9.764732E-1,0E0,8.0204713E-1,0E0,0E0],"parents":[2147483647,0,0,2,2,4,4],"right_children":[2,-1,4,-1,6,-1,-1],"split_conditions":[-1.1743488E0,1.4065678E-2,-5.025726E-1,-2.9028922E-2,9.3794876E-1,1.15392795E-2,-1.7517097E-2],"split_indices":[0,0,0,0,1,0,0],"split_type":[0,0,0,0,0,0,0],"sum_hessian":[1.40320635E1,2.5243652E0,1.1507698E1,2.0554185E0,9.45228E0,7.0631104E0,2.3891695E0],"tree_param":{"num_deleted":"0","num_feature":"3","num_nodes":"7","size_leaf_vector":"1"}},{"base_weights":[-8.315348E-3,2.2571173E-1,-1.0340309E-1,-5.983272E-2,3.0061096E-2,-4.0917104E-1,1.5786816E-1,9.9390475E-3,-1.2586892E-2,-1.5526357E-4,-4.4446524E-2,2.9336026E-2,-1.6258387E-3],"categories":[],"categories_nodes":[],"categories_segments":[],"categories_sizes":[],"default_left":[0,0,0,0,0,0,0,0,0,0,0,0,0],"id":83,"left_children":[1,3,5,7,-1,9,11,-1,-1,-1,-1,-1,-1],"loss_changes":[3.5696837E-1,5.341185E-1,9.710618E-1,2.2615148E-1,0E0,1.0699909E0,5.775541E-1,0E0,0E0,0E0,0E0,0E0,0E0],"parents":[2147483647,0,0,1,1,2,2,3,3,5,5,6,6],"right_children":[2,4,6,8,-1,10,12,-1,-1,-1,-1,-1,-1],"split_conditions":[-6.110627E-1,-1.1583905E0,4.187778E-1,-5.838672E-1,3.0061096E-2,1.9192483E-1,6.492316E-1,9.9390475E-3,-1.2586892E-2,-1.5526357E-4,-4.4446524E-2,2.9336026E-2,-1.6258387E-3],"split_indices":[2,2,2,1,0,2,2,0,0,0,0,0,0],"split_type":[0,0,0,0,0,0,0,0,0,0,0,0,0],"sum_hessian":[1.3992473E1,3.6458056E0,1.0346667E1,2.5485253E0,1.0972801E0,4.5065436E0,5.840123E0,1.0703199E0,1.4782056E0,2.985828E0,1.5207157E0,1.1555117E0,4.684612E0],"tree_param":{"num_deleted":"0","num_feature":"3","num_nodes":"13","size_leaf_vector":"1"}},{"base_weights":[-7.2398693E-3,2.7229652E-1,-8.561962E-2,1.6033486E-2,4.5649754E-3,-3.1735603E-2,4.6823893E-2,1.5487134E-2,-8.321292E-3],"categories":[],"categories_nodes":[],"categories_segments":[],"categories_sizes":[],"default_left":[0,0,0,0,0,0,0,0,0],"id":84,"left_children":[1,3,5,-1,-1,-1,7,-1,-1],"loss_changes":[3.506971E-1,1.4666617E-3,9.337331E-1,0E0,0E0,0E0,6.65285E-1,0E0,0E0],"parents":[2147483647,0,0,1,1,2,2,6,6],"right_children":[2,4,6,-1,-1,-1,8,-1,-1],"split_conditions":[-1.1743488E0,-5.838672E-1,-8.7204957E-1,1.6033486E-2,4.5649754E-3,-3.1735603E-2,1.9192483E-1,1.5487134E-2,-8.321292E-3],"split_indices":[0,1,0,0,0,0,2,0,0],"split_type":[0,0,0,0,0,0,0,0,0],"sum_hessian":[1.3942185E1,2.5113933E0,1.1430792E1,1.3728114E0,1.1385818E0,1.4843909E0,9.946401E0,4.251802E0,5.694599E0],"tree_param":{"num_deleted":"0","num_feature":"3","num_nodes":"9","size_leaf_vector":"1"}},{"base_weights":[-7.1753836E-3,5.796774E-2,-1.6966542E-2,-1.3280992E-1,4.164985E-1,-1.6414545E-2,8.816117E-3,2.9897591E-2,3.0908673E-3],"categories":[],"categories_nodes":[],"categories_segments":[],"categories_sizes":[],"default_left":[0,0,0,0,0,0,0,0,0],"id":85,"left_children":[1,3,-1,5,7,-1,-1,-1,-1],"loss_changes":[3.4198442E-1,9.6555483E-1,0E0,6.285851E-1,2.760479E-1,0E0,0E0,0E0,0E0],"parents":[2147483647,0,0,1,1,3,3,4,4],"right_children":[2,4,-1,6,8,-1,-1,-1,-1],"split_conditions":[1.3112233E0,5.574948E-1,-1.6966542E-2,3.371477E-1,1.6920364E-1,-1.6414545E-2,8.816117E-3,2.9897591E-2,3.0908673E-3],"split_indices":[0,1,0,0,0,0,0,0,0],"split_type":[0,0,0,0,0,0,0,0,0],"sum_hessian":[1.3895991E1,1.2307663E1,1.5883282E0,8.444066E0,3.8635967E0,5.1349716E0,3.3090947E0,2.1022232E0,1.7613735E0],"tree_param":{"num_deleted":"0","num_feature":"3","num_nodes":"9","size_leaf_vector":"1"}},{"base_weights":[-6.250331E-3,2.7049214E-1,-8.4235944E-2,1.6044201E-2,4.3546427E-3,-3.1112835E-2,4.4641342E-2,8.019925E-3,-1.9868337E-2],"categories":[],"categories_nodes":[],"categories_segments":[],"categories_sizes":[],"default_left":[0,0,0,0,0,0,0,0,0],"id":86,"left_children":[1,3,5,-1,-1,-1,7,-1,-1],"loss_changes":[3.4303498E-1,4.397124E-3,8.833534E-1,0E0,0E0,0E0,6.2080884E-1,0E0,0E0],"parents":[2147483647,0,0,1,1,2,2,6,6],"right_children":[2,4,6,-1,-1,-1,8,-1,-1],"split_conditions":[-1.1743488E0,-5.838672E-1,-8.7204957E-1,1.6044201E-2,4.3546427E-3,-3.1112835E-2,1.3529894E0,8.019925E-3,-1.9868337E-2],"split_indices":[0,1,0,0,0,0,1,0,0],"split_type":[0,0,0,0,0,0,0,0,0],"sum_hessian":[1.3838795E1,2.4997187E0,1.1339076E1,1.372857E0,1.1268618E0,1.4514512E0,9.887625E0,8.340462E0,1.547163E0],"tree_param":{"num_deleted":"0","num_feature":"3","num_nodes":"9","size_leaf_vector":"1"}},{"base_weights":[-7.48883E-3,9.470579E-2,-2.1622542E-1,-5.9912182E-2,2.192097E-2,9.1538005E-2,-2.9355312E-2,-1.589568E-2,2.3216937E-2,-1.9068114E-2,2.4184689E-2],"categories":[],"categories_nodes":[],"categories_segments":[],"categories_sizes":[],"default_left":[0,0,0,0,0,0,0,0,0,0,0],"id":87,"left_children":[1,3,5,7,-1,9,-1,-1,-1,-1,-1],"loss_changes":[3.3640978E-1,5.9161794E-1,6.441346E-1,1.2590488E0,0E0,8.6911404E-1,0E0,0E0,0E0,0E0,0E0],"parents":[2147483647,0,0,1,1,2,2,3,3,5,5],"right_children":[2,4,6,8,-1,10,-1,-1,-1,-1,-1],"split_conditions":[8.745687E-1,5.574948E-1,9.3794876E-1,3.371477E-1,2.192097E-2,-1.3423973E-1,-2.9355312E-2,-1.589568E-2,2.3216937E-2,-1.9068114E-2,2.4184689E-2],"split_indices":[0,1,1,0,0,1,0,0,0,0,0],"split_type":[0,0,0,0,0,0,0,0,0,0,0],"sum_hessian":[1.3810406E1,9.6380415E0,4.1723647E0,7.217137E0,2.4209042E0,2.691827E0,1.4805378E0,5.100564E0,2.116573E0,1.2327628E0,1.4590642E0],"tree_param":{"num_deleted":"0","num_feature":"3","num_nodes":"11","size_leaf_vector":"1"}},{"base_weights":[-6.796401E-3,2.6946777E-1,-8.49757E-2,1.6040025E-2,4.235846E-3,-2.7297705E-2,5.595039E-2,1.0378423E-2,-1.6097385E-2],"categories":[],"categories_nodes":[],"categories_segments":[],"categories_sizes":[],"default_left":[0,0,0,0,0,0,0,0,0],"id":88,"left_children":[1,3,5,-1,-1,-1,7,-1,-1],"loss_changes":[3.4122953E-1,5.927503E-3,8.2623416E-1,0E0,0E0,0E0,6.5626043E-1,0E0,0E0],"parents":[2147483647,0,0,1,1,2,2,6,6],"right_children":[2,4,6,-1,-1,-1,8,-1,-1],"split_conditions":[-1.1743488E0,-5.838672E-1,-5.025726E-1,1.6040025E-2,4.235846E-3,-2.7297705E-2,9.3794876E-1,1.0378423E-2,-1.6097385E-2],"split_indices":[0,1,0,0,0,0,1,0,0],"split_type":[0,0,0,0,0,0,0,0,0],"sum_hessian":[1.3738831E1,2.4906754E0,1.1248156E1,1.3728392E0,1.1178364E0,1.9606606E0,9.287495E0,6.9498467E0,2.3376482E0],"tree_param":{"num_deleted":"0","num_feature":"3","num_nodes":"9","size_leaf_vector":"1"}},{"base_weights":[-7.3515587E-3,2.2386886E-1,-1.0084292E-1,-5.4418E-2,2.9346248E-2,-4.0769386E-1,1.6046399E-1,1.0503442E-2,-1.25624165E-2,-6.182617E-4,-4.346546E-2,-6.678078E-3,1.9951696E-2],"categories":[],"categories_nodes":[],"categories_segments":[],"categories_sizes":[],"default_left":[0,0,0,0,0,0,0,0,0,0,0,0,0],"id":89,"left_children":[1,3,5,7,-1,9,11,-1,-1,-1,-1,-1,-1],"loss_changes":[3.404323E-1,4.9105024E-1,9.602386E-1,2.3433672E-1,0E0,9.7744036E-1,5.2641135E-1,0E0,0E0,0E0,0E0,0E0,0E0],"parents":[2147483647,0,0,1,1,2,2,3,3,5,5,6,6],"right_children":[2,4,6,8,-1,10,12,-1,-1,-1,-1,-1,-1],"split_conditions":[-6.110627E-1,-1.1583905E0,4.187778E-1,-5.838672E-1,2.9346248E-2,1.9192483E-1,-3.7634683E-1,1.0503442E-2,-1.25624165E-2,-6.182617E-4,-4.346546E-2,-6.678078E-3,1.9951696E-2],"split_indices":[2,2,2,1,0,2,1,0,0,0,0,0,0],"split_type":[0,0,0,0,0,0,0,0,0,0,0,0,0],"sum_hessian":[1.37039385E1,3.5441349E0,1.0159803E1,2.487527E0,1.0566078E0,4.4150405E0,5.744763E0,1.0326567E0,1.4548703E0,2.9313834E0,1.4836572E0,2.770463E0,2.9743E0],"tree_param":{"num_deleted":"0","num_feature":"3","num_nodes":"13","size_leaf_vector":"1"}},{"base_weights":[-7.269664E-3,2.653729E-1,-8.470665E-2,1.5787324E-2,4.170767E-3,-3.003486E-2,3.8634676E-2,1.44409975E-2,-8.14501E-3],"categories":[],"categories_nodes":[],"categories_segments":[],"categories_sizes":[],"default_left":[0,0,0,0,0,0,0,0,0],"id":90,"left_children":[1,3,5,-1,-1,-1,7,-1,-1],"loss_changes":[3.3171785E-1,5.5763125E-3,7.974395E-1,0E0,0E0,0E0,5.894716E-1,0E0,0E0],"parents":[2147483647,0,0,1,1,2,2,6,6],"right_children":[2,4,6,-1,-1,-1,8,-1,-1],"split_conditions":[-1.1743488E0,-5.838672E-1,-8.7204957E-1,1.5787324E-2,4.170767E-3,-3.003486E-2,1.9192483E-1,1.44409975E-2,-8.14501E-3],"split_indices":[0,1,0,0,0,0,2,0,0],"split_type":[0,0,0,0,0,0,0,0,0],"sum_hessian":[1.36471195E1,2.4818811E0,1.1165238E1,1.3679101E0,1.113971E0,1.4073744E0,9.757864E0,4.1602416E0,5.5976224E0],"tree_param":{"num_deleted":"0","num_feature":"3","num_nodes":"9","size_leaf_vector":"1"}},{"base_weights":[-7.193981E-3,-1.335777E-1,1.6077052E-1,1.2159044E-1,-4.2586476E-2,2.8239219E-2,-2.1125855E-2,-4.3418757E-3,2.472916E-2,-2.2771573E-2,1.8630585E-2],"categories":[],"categories_nodes":[],"categories_segments":[],"categories_sizes":[],"default_left":[0,0,0,0,0,0,0,0,0,0,0],"id":91,"left_children":[1,3,5,7,-1,-1,9,-1,-1,-1,-1],"loss_changes":[3.3149043E-1,1.7307708E0,5.060937E-1,6.203301E-1,0E0,0E0,1.1274325E0,0E0,0E0,0E0,0E0],"parents":[2147483647,0,0,1,1,2,2,3,3,6,6],"right_children":[2,4,6,8,-1,-1,10,-1,-1,-1,-1],"split_conditions":[4.187778E-1,1.9192483E-1,6.492316E-1,-3.301971E-1,-4.2586476E-2,2.8239219E-2,-3.7634683E-1,-4.3418757E-3,2.472916E-2,-2.2771573E-2,1.8630585E-2],"split_indices":[2,2,2,2,0,0,1,0,0,0,0],"split_type":[0,0,0,0,0,0,0,0,0,0,0],"sum_hessian":[1.360408E1,7.8797464E0,5.7243333E0,6.426885E0,1.4528612E0,1.1236322E0,4.6007013E0,4.615138E0,1.811747E0,2.1131446E0,2.4875567E0],"tree_param":{"num_deleted":"0","num_feature":"3","num_nodes":"11","size_leaf_vector":"1"}},{"base_weights":[-6.7616226E-3,9.567904E-2,-2.155917E-1,-5.694641E-2,2.1670416E-2,8.228821E-2,-2.8495802E-2,-1.51330335E-2,2.208305E-2,-1.8947465E-2,2.345646E-2],"categories":[],"categories_nodes":[],"categories_segments":[],"categories_sizes":[],"default_left":[0,0,0,0,0,0,0,0,0,0,0],"id":92,"left_children":[1,3,5,7,-1,9,-1,-1,-1,-1,-1],"loss_changes":[3.3153313E-1,5.629723E-1,5.841635E-1,1.1231495E0,0E0,8.2711554E-1,0E0,0E0,0E0,0E0,0E0],"parents":[2147483647,0,0,1,1,2,2,3,3,5,5],"right_children":[2,4,6,8,-1,10,-1,-1,-1,-1,-1],"split_conditions":[8.745687E-1,5.574948E-1,9.3794876E-1,3.371477E-1,2.1670416E-2,-1.3423973E-1,-2.8495802E-2,-1.51330335E-2,2.208305E-2,-1.8947465E-2,2.345646E-2],"split_indices":[0,1,1,0,0,1,0,0,0,0,0],"split_type":[0,0,0,0,0,0,0,0,0,0,0],"sum_hessian":[1.3533259E1,9.442914E0,4.090346E0,7.07637E0,2.366544E0,2.639273E0,1.4510727E0,5.003586E0,2.0727842E0,1.2131786E0,1.4260944E0],"tree_param":{"num_deleted":"0","num_feature":"3","num_nodes":"11","size_leaf_vector":"1"}},{"base_weights":[-6.1209607E-3,2.664935E-1,-8.427885E-2,1.5986724E-2,3.9839386E-3,-2.9425615E-2,3.6223438E-2,1.1071743E-2,-1.051496E-2],"categories":[],"categories_nodes":[],"categories_segments":[],"categories_sizes":[],"default_left":[0,0,0,0,0,0,0,0,0],"id":93,"left_children":[1,3,5,-1,-1,-1,7,-1,-1],"loss_changes":[3.3064538E-1,8.968666E-3,7.505125E-1,0E0,0E0,0E0,5.3183764E-1,0E0,0E0],"parents":[2147483647,0,0,1,1,2,2,6,6],"right_children":[2,4,6,-1,-1,-1,8,-1,-1],"split_conditions":[-1.1743488E0,-5.838672E-1,-8.7204957E-1,1.5986724E-2,3.9839386E-3,-2.9425615E-2,8.745687E-1,1.1071743E-2,-1.051496E-2],"split_indices":[0,1,0,0,0,0,0,0,0],"split_type":[0,0,0,0,0,0,0,0,0],"sum_hessian":[1.3464075E1,2.463102E0,1.1000973E1,1.3631165E0,1.0999855E0,1.3727921E0,9.6281805E0,5.5558558E0,4.0723248E0],"tree_param":{"num_deleted":"0","num_feature":"3","num_nodes":"9","size_leaf_vector":"1"}},{"base_weights":[-6.4589977E-3,2.2266722E-1,-9.954258E-2,-4.9301118E-2,2.8774967E-2,-4.0305266E-1,1.5791239E-1,1.0873397E-2,-1.2439413E-2,-1.4496868E-3,-4.1856337E-2,-6.147534E-3,1.922452E-2],"categories":[],"categories_nodes":[],"categories_segments":[],"categories_sizes":[],"default_left":[0,0,0,0,0,0,0,0,0,0,0,0,0],"id":94,"left_children":[1,3,5,7,-1,9,11,-1,-1,-1,-1,-1,-1],"loss_changes":[3.2985428E-1,4.579495E-1,9.192789E-1,2.3765507E-1,0E0,8.374202E-1,4.70015E-1,0E0,0E0,0E0,0E0,0E0,0E0],"parents":[2147483647,0,0,1,1,2,2,3,3,5,5,6,6],"right_children":[2,4,6,8,-1,10,12,-1,-1,-1,-1,-1,-1],"split_conditions":[-6.110627E-1,-1.1583905E0,4.187778E-1,-5.838672E-1,2.8774967E-2,1.9192483E-1,-3.7634683E-1,1.0873397E-2,-1.2439413E-2,-1.4496868E-3,-4.1856337E-2,-6.147534E-3,1.922452E-2],"split_indices":[2,2,2,1,0,2,1,0,0,0,0,0,0],"split_type":[0,0,0,0,0,0,0,0,0,0,0,0,0],"sum_hessian":[1.3426623E1,3.4766622E0,9.949962E0,2.4491165E0,1.0275456E0,4.3069873E0,5.6429744E0,1.0092872E0,1.4398292E0,2.8864298E0,1.4205574E0,2.7238655E0,2.9191089E0],"tree_param":{"num_deleted":"0","num_feature":"3","num_nodes":"13","size_leaf_vector":"1"}},{"base_weights":[-6.3870433E-3,2.6258847E-1,-8.381669E-2,1.5730469E-2,3.9415965E-3,-2.8967444E-2,3.482884E-2,7.106927E-3,-1.8514415E-2],"categories":[],"categories_nodes":[],"categories_segments":[],"categories_sizes":[],"default_left":[0,0,0,0,0,0,0,0,0],"id":95,"left_children":[1,3,5,-1,-1,-1,7,-1,-1],"loss_changes":[3.213218E-1,8.219436E-3,7.208246E-1,0E0,0E0,0E0,5.116369E-1,0E0,0E0],"parents":[2147483647,0,0,1,1,2,2,6,6],"right_children":[2,4,6,-1,-1,-1,8,-1,-1],"split_conditions":[-1.1743488E0,-5.838672E-1,-8.7204957E-1,1.5730469E-2,3.9415965E-3,-2.8967444E-2,1.3529894E0,7.106927E-3,-1.8514415E-2],"split_indices":[0,1,0,0,0,0,1,0,0],"split_type":[0,0,0,0,0,0,0,0,0],"sum_hessian":[1.3371589E1,2.4543474E0,1.0917241E1,1.3578466E0,1.0965008E0,1.3588552E0,9.558386E0,8.0699215E0,1.4884638E0],"tree_param":{"num_deleted":"0","num_feature":"3","num_nodes":"9","size_leaf_vector":"1"}},{"base_weights":[-7.5363438E-3,2.1971105E-1,-9.965139E-2,-4.5518856E-2,2.8187284E-2,-3.4136146E-2,3.4946647E-2,-1.1115246E-2,7.098825E-3,-2.3322223E-2,1.1086962E-2],"categories":[],"categories_nodes":[],"categories_segments":[],"categories_sizes":[],"default_left":[0,0,0,0,0,0,0,0,0,0,0],"id":96,"left_children":[1,3,5,7,-1,-1,9,-1,-1,-1,-1],"loss_changes":[3.2218072E-1,4.316859E-1,8.789413E-1,1.4551646E-1,0E0,0E0,1.021575E0,0E0,0E0,0E0,0E0],"parents":[2147483647,0,0,1,1,2,2,3,3,6,6],"right_children":[2,4,6,8,-1,-1,10,-1,-1,-1,-1],"split_conditions":[-6.110627E-1,-1.1583905E0,-3.301971E-1,-4.0180618E-1,2.8187284E-2,-3.4136146E-2,-9.6432114E-1,-1.1115246E-2,7.098825E-3,-2.3322223E-2,1.1086962E-2],"split_indices":[2,2,2,0,0,0,1,0,0,0,0],"split_type":[0,0,0,0,0,0,0,0,0,0,0],"sum_hessian":[1.3345177E1,3.4496717E0,9.895506E0,2.4378939E0,1.0117779E0,1.0921332E0,8.803372E0,1.1592252E0,1.2786686E0,1.9831228E0,6.8202496E0],"tree_param":{"num_deleted":"0","num_feature":"3","num_nodes":"11","size_leaf_vector":"1"}},{"base_weights":[-8.717313E-3,2.6145825E-1,-8.6368464E-2,1.5406273E-2,4.209072E-3,-2.812028E-2,2.730422E-2,1.5216273E-2,-6.7494228E-3],"categories":[],"categories_nodes":[],"categories_segments":[],"categories_sizes":[],"default_left":[0,0,0,0,0,0,0,0,0],"id":97,"left_children":[1,3,5,-1,-1,-1,7,-1,-1],"loss_changes":[3.2299092E-1,2.5623143E-3,6.5789723E-1,0E0,0E0,0E0,5.14899E-1,0E0,0E0],"parents":[2147483647,0,0,1,1,2,2,6,6],"right_children":[2,4,6,-1,-1,-1,8,-1,-1],"split_conditions":[-1.1743488E0,-5.838672E-1,-8.7204957E-1,1.5406273E-2,4.209072E-3,-2.812028E-2,-1.6095759E-1,1.5216273E-2,-6.7494228E-3],"split_indices":[0,1,0,0,0,0,2,0,0],"split_type":[0,0,0,0,0,0,0,0,0],"sum_hessian":[1.3319217E1,2.445026E0,1.087419E1,1.3512205E0,1.0938056E0,1.3351744E0,9.539016E0,3.2006264E0,6.33839E0],"tree_param":{"num_deleted":"0","num_feature":"3","num_nodes":"9","size_leaf_vector":"1"}},{"base_weights":[-8.313022E-3,5.6666955E-2,-1.6597658E-2,-1.2791155E-1,4.0365735E-1,5.4959336E-4,-3.1078784E-2,2.866357E-2,3.3094347E-3],"categories":[],"categories_nodes":[],"categories_segments":[],"categories_sizes":[],"default_left":[0,0,0,0,0,0,0,0,0],"id":98,"left_children":[1,3,-1,5,7,-1,-1,-1,-1],"loss_changes":[3.1908238E-1,8.679072E-1,0E0,6.293832E-1,2.2914082E-1,0E0,0E0,0E0,0E0],"parents":[2147483647,0,0,1,1,3,3,4,4],"right_children":[2,4,-1,6,8,-1,-1,-1,-1],"split_conditions":[1.3112233E0,5.574948E-1,-1.6597658E-2,3.86939E-2,1.6920364E-1,5.4959336E-4,-3.1078784E-2,2.866357E-2,3.3094347E-3],"split_indices":[0,1,0,1,0,0,0,0,0],"split_type":[0,0,0,0,0,0,0,0,0],"sum_hessian":[1.3278164E1,1.1744941E1,1.5332239E0,8.07884E0,3.6661003E0,7.067871E0,1.0109693E0,1.9748083E0,1.6912918E0],"tree_param":{"num_deleted":"0","num_feature":"3","num_nodes":"9","size_leaf_vector":"1"}},{"base_weights":[-8.961002E-3,2.5298545E-1,-8.431126E-2,1.4961973E-2,3.962998E-3,-2.4991302E-2,4.182901E-2,1.232163E-2,-1.0445433E-2],"categories":[],"categories_nodes":[],"categories_segments":[],"categories_sizes":[],"default_left":[0,0,0,0,0,0,0,0,0],"id":99,"left_children":[1,3,5,-1,-1,-1,7,-1,-1],"loss_changes":[3.023607E-1,3.8498044E-3,6.397784E-1,0E0,0E0,0E0,5.635046E-1,0E0,0E0],"parents":[2147483647,0,0,1,1,2,2,6,6],"right_children":[2,4,6,-1,-1,-1,8,-1,-1],"split_conditions":[-1.1743488E0,-5.838672E-1,-5.025726E-1,1.4961973E-2,3.962998E-3,-2.4991302E-2,8.745687E-1,1.232163E-2,-1.0445433E-2],"split_indices":[0,1,0,0,0,0,0,0,0],"split_type":[0,0,0,0,0,0,0,0,0],"sum_hessian":[1.3238271E1,2.4307141E0,1.0807556E1,1.349049E0,1.0816653E0,1.8269606E0,8.980596E0,4.9546986E0,4.0258975E0],"tree_param":{"num_deleted":"0","num_feature":"3","num_nodes":"9","size_leaf_vector":"1"}}]},"name":"gbtree"},"learner_model_param":{"base_score":"5.4983395E-1","boost_from_average":"1","num_class":"0","num_feature":"3","num_target":"1"},"objective":{"name":"binary:logistic","reg_loss_param":{"scale_pos_weight":"1"}}},"version":[2,0,3]}